{"learner":{"attributes":{"scikit_learn":"{\"_estimator_type\": \"regressor\"}"},"feature_names":["Latitude_(deg)","Longitude_(deg)","Distance_from_FDNPP","Total_biomass","Tree_height","Elevation","Mushroom_animal_name_encoded","Variance_type_inv_encoded","Wild_Grown_mushroom_encoded","Leaf/ring_age_encoded","Slope_aspect_encoded","Position_on_slope_encoded","Thickness_type_litter_encoded","Leaf_habit_encoded","Parts_animal_encoded","Mushroom_animal_scientific_name_encoded","Parts_encoded","Soil_type_encoded","Height_Elevation","Latitude_(deg)_is_missing","Longitude_(deg)_is_missing","Distance_from_FDNPP_is_missing","Total_biomass_is_missing","Tree_height_is_missing","Elevation_is_missing","Mushroom_animal_name_encoded_is_missing","Variance_type_inv_encoded_is_missing","Wild_Grown_mushroom_encoded_is_missing","Leaf/ring_age_encoded_is_missing","Slope_aspect_encoded_is_missing","Position_on_slope_encoded_is_missing","Thickness_type_litter_encoded_is_missing","Leaf_habit_encoded_is_missing","Parts_animal_encoded_is_missing","Mushroom_animal_scientific_name_encoded_is_missing","Parts_encoded_is_missing","Soil_type_encoded_is_missing","Height_Elevation_is_missing"],"feature_types":["float","float","float","float","float","float","float","float","float","float","float","float","float","float","float","float","float","float","float","float","float","float","float","float","float","float","float","float","float","float","float","float","float","float","float","float","float","float"],"gradient_booster":{"model":{"gbtree_model_param":{"num_parallel_tree":"1","num_trees":"300"},"iteration_indptr":[0,1,2,3,4,5,6,7,8,9,10,11,12,13,14,15,16,17,18,19,20,21,22,23,24,25,26,27,28,29,30,31,32,33,34,35,36,37,38,39,40,41,42,43,44,45,46,47,48,49,50,51,52,53,54,55,56,57,58,59,60,61,62,63,64,65,66,67,68,69,70,71,72,73,74,75,76,77,78,79,80,81,82,83,84,85,86,87,88,89,90,91,92,93,94,95,96,97,98,99,100,101,102,103,104,105,106,107,108,109,110,111,112,113,114,115,116,117,118,119,120,121,122,123,124,125,126,127,128,129,130,131,132,133,134,135,136,137,138,139,140,141,142,143,144,145,146,147,148,149,150,151,152,153,154,155,156,157,158,159,160,161,162,163,164,165,166,167,168,169,170,171,172,173,174,175,176,177,178,179,180,181,182,183,184,185,186,187,188,189,190,191,192,193,194,195,196,197,198,199,200,201,202,203,204,205,206,207,208,209,210,211,212,213,214,215,216,217,218,219,220,221,222,223,224,225,226,227,228,229,230,231,232,233,234,235,236,237,238,239,240,241,242,243,244,245,246,247,248,249,250,251,252,253,254,255,256,257,258,259,260,261,262,263,264,265,266,267,268,269,270,271,272,273,274,275,276,277,278,279,280,281,282,283,284,285,286,287,288,289,290,291,292,293,294,295,296,297,298,299,300],"tree_info":[0,0,0,0,0,0,0,0,0,0,0,0,0,0,0,0,0,0,0,0,0,0,0,0,0,0,0,0,0,0,0,0,0,0,0,0,0,0,0,0,0,0,0,0,0,0,0,0,0,0,0,0,0,0,0,0,0,0,0,0,0,0,0,0,0,0,0,0,0,0,0,0,0,0,0,0,0,0,0,0,0,0,0,0,0,0,0,0,0,0,0,0,0,0,0,0,0,0,0,0,0,0,0,0,0,0,0,0,0,0,0,0,0,0,0,0,0,0,0,0,0,0,0,0,0,0,0,0,0,0,0,0,0,0,0,0,0,0,0,0,0,0,0,0,0,0,0,0,0,0,0,0,0,0,0,0,0,0,0,0,0,0,0,0,0,0,0,0,0,0,0,0,0,0,0,0,0,0,0,0,0,0,0,0,0,0,0,0,0,0,0,0,0,0,0,0,0,0,0,0,0,0,0,0,0,0,0,0,0,0,0,0,0,0,0,0,0,0,0,0,0,0,0,0,0,0,0,0,0,0,0,0,0,0,0,0,0,0,0,0,0,0,0,0,0,0,0,0,0,0,0,0,0,0,0,0,0,0,0,0,0,0,0,0,0,0,0,0,0,0,0,0,0,0,0,0,0,0,0,0,0,0,0,0,0,0,0,0,0,0,0,0,0,0,0,0,0,0,0,0],"trees":[{"base_weights":[8.3686307E-4,1.0884951E0,-1.274514E0,1.4199724E0,-8.704012E-1,-5.9469414E-1,-3.3731518E0,-4.58239E-1,1.602009E0,1.22327E0,-1.0117102E0,-1.8710067E0,-4.325175E-2,-4.5679507E0,-3.1369483E0,-2.7938116E-1,-2.2510254E-1,7.57871E-1,1.9850843E0,1.8548004E-1,2.9602134E0,-5.297143E-1,-1.524578E0,2.012817E-1,-3.8364232E0,8.352172E-1,-8.655689E-1,-1.4615218E-1,-5.232568E0,-1.6070932E-1,-3.2189412E0,-7.903453E-1,7.390907E-1,2.1062148E0,-8.4304994E-1,2.8673542E0,1.3096532E0,1.8964518E0,-1.2898996E0,1.5226677E-1,2.9316401E-2,-1.164615E0,-3.6951765E-1,-9.6303654E-1,-1.9583093E0,9.87571E-1,-8.7032354E-1,-4.0740905E0,-1.3424097E0,1.8007841E0,3.8950476E-3,-1.7162057E0,7.2796024E-2,-2.7494442E-1,-2.2546326E-1,-3.1291354E-1,2.4611361E-1,-3.2751195E0,-4.0023714E-2,9.7048536E-2,-5.546412E-2,1.7432263E-1,-4.6370304E-3,1.2744902E-1,8.75834E-2,-5.8708556E-2,5.320821E-2,9.4266556E-2,2.08126E-1,-8.197095E-2,8.2439475E-2,1.1881254E-1,6.374939E-2,-2.2001266E-1,-2.635244E-2,-4.15041E-2,-9.7807735E-2,-1.3361144E-2,-6.1464954E-2,-6.378365E-2,-2.207166E-3,-8.378682E-2,-1.3089658E-1,-1.13352E-1,6.0638994E-2,-7.4085385E-2,-1.0642412E-2,-6.784592E-3,-2.1106377E-1,-3.5888936E-2,-7.9496674E-2,4.1122097E-3,1.4313953E-1,-7.807713E-2,4.5770373E-2,-1.2701187E-1,-3.763723E-2,3.8833406E-2,-7.617077E-2,-2.0407716E-2,1.2075937E-2,1.9996453E-2,-9.741346E-3,-1.6612157E-1,-7.046513E-2],"categories":[],"categories_nodes":[],"categories_segments":[],"categories_sizes":[],"default_left":[0,0,0,0,0,0,0,0,0,0,0,0,0,0,0,0,0,0,0,0,0,0,0,1,0,0,0,0,0,0,1,0,0,0,0,0,0,0,0,0,0,0,1,0,0,0,0,0,0,0,0,1,1,0,0,0,0,0,0,0,0,0,0,0,0,0,0,0,0,0,0,0,0,0,0,0,0,0,0,0,0,0,0,0,0,0,0,0,0,0,0,0,0,0,0,0,0,0,0,0,0,0,0,0,0],"id":0,"left_children":[1,3,5,7,9,11,13,15,17,19,21,23,25,27,29,-1,31,33,35,37,39,41,43,45,47,49,51,-1,53,55,57,59,61,63,65,67,69,71,73,-1,-1,75,77,79,81,83,85,87,89,91,93,95,97,-1,-1,99,101,103,-1,-1,-1,-1,-1,-1,-1,-1,-1,-1,-1,-1,-1,-1,-1,-1,-1,-1,-1,-1,-1,-1,-1,-1,-1,-1,-1,-1,-1,-1,-1,-1,-1,-1,-1,-1,-1,-1,-1,-1,-1,-1,-1,-1,-1,-1,-1],"loss_changes":[1.6433518E4,4.15305E3,7.7777637E3,1.8706025E3,2.7519897E2,2.8996274E3,3.6214648E2,5.7753186E2,1.6108105E3,1.0580332E2,2.1376215E2,5.0634E3,2.0797324E3,2.2302979E2,2.7206543E2,0E0,2.5346564E2,3.3648616E3,2.0396289E3,9.837088E1,2.659958E0,4.5236977E1,1.0040857E2,5.1147012E2,3.7270312E2,1.1173477E3,1.1870599E3,0E0,4.8691406E0,1.9965374E0,1.4506348E2,2.5739062E2,3.934021E2,1.2834106E2,4.5152252E2,1.8821699E3,1.9469705E3,2.3375168E0,4.75083E1,0E0,0E0,2.2207886E1,3.1333916E1,5.309041E1,3.960144E1,2.5928787E2,1.0299089E2,3.367959E2,7.6716003E0,1.1751289E3,1.0701896E3,6.173474E2,7.9664154E2,0E0,0E0,1.313082E0,6.88328E-1,8.906641E1,0E0,0E0,0E0,0E0,0E0,0E0,0E0,0E0,0E0,0E0,0E0,0E0,0E0,0E0,0E0,0E0,0E0,0E0,0E0,0E0,0E0,0E0,0E0,0E0,0E0,0E0,0E0,0E0,0E0,0E0,0E0,0E0,0E0,0E0,0E0,0E0,0E0,0E0,0E0,0E0,0E0,0E0,0E0,0E0,0E0,0E0,0E0],"parents":[2147483647,0,0,1,1,2,2,3,3,4,4,5,5,6,6,7,7,8,8,9,9,10,10,11,11,12,12,13,13,14,14,16,16,17,17,18,18,19,19,20,20,21,21,22,22,23,23,24,24,25,25,26,26,28,28,29,29,30,30,31,31,32,32,33,33,34,34,35,35,36,36,37,37,38,38,41,41,42,42,43,43,44,44,45,45,46,46,47,47,48,48,49,49,50,50,51,51,52,52,55,55,56,56,57,57],"right_children":[2,4,6,8,10,12,14,16,18,20,22,24,26,28,30,-1,32,34,36,38,40,42,44,46,48,50,52,-1,54,56,58,60,62,64,66,68,70,72,74,-1,-1,76,78,80,82,84,86,88,90,92,94,96,98,-1,-1,100,102,104,-1,-1,-1,-1,-1,-1,-1,-1,-1,-1,-1,-1,-1,-1,-1,-1,-1,-1,-1,-1,-1,-1,-1,-1,-1,-1,-1,-1,-1,-1,-1,-1,-1,-1,-1,-1,-1,-1,-1,-1,-1,-1,-1,-1,-1,-1,-1],"split_conditions":[1.3297953E-1,1.0495075E0,7.6616776E-1,1.6905056E0,-1.719141E-1,-4.6163774E-1,5.753928E-1,-5.187168E-1,-4.6163774E-1,-2.834391E0,1.0197381E0,-6.505309E-1,9.551876E-1,5.7918483E-1,-2.4832742E0,-2.7938116E-1,-2.7274457E-1,-8.39424E-1,-1.78298E-1,-7.591211E0,-9.35372E-1,-6.4080226E-1,-5.067466E-1,9.551876E-1,-5.5608433E-1,-1.78298E-1,2.0211193E-1,-1.4615218E-1,1.7196168E0,2.8081636E0,3.2350802E0,-1.8783364E0,-1.78298E-1,-1.8783364E0,-5.5608433E-1,-2.7274457E-1,-5.187168E-1,-8.856322E0,-6.9839573E0,1.5226677E-1,2.9316401E-2,-6.9338536E-1,3.3570564E0,-5.607845E-1,-1.3637884E-1,2.8557131E0,2.2124012E0,-2.4832742E0,5.1789594E-1,-2.7274457E-1,1.0197381E0,5.753928E-1,5.7918483E-1,-2.7494442E-1,-2.2546326E-1,1.2384007E0,1.143954E0,1.4549321E1,-4.0023714E-2,9.7048536E-2,-5.546412E-2,1.7432263E-1,-4.6370304E-3,1.2744902E-1,8.75834E-2,-5.8708556E-2,5.320821E-2,9.4266556E-2,2.08126E-1,-8.197095E-2,8.2439475E-2,1.1881254E-1,6.374939E-2,-2.2001266E-1,-2.635244E-2,-4.15041E-2,-9.7807735E-2,-1.3361144E-2,-6.1464954E-2,-6.378365E-2,-2.207166E-3,-8.378682E-2,-1.3089658E-1,-1.13352E-1,6.0638994E-2,-7.4085385E-2,-1.0642412E-2,-6.784592E-3,-2.1106377E-1,-3.5888936E-2,-7.9496674E-2,4.1122097E-3,1.4313953E-1,-7.807713E-2,4.5770373E-2,-1.2701187E-1,-3.763723E-2,3.8833406E-2,-7.617077E-2,-2.0407716E-2,1.2075937E-2,1.9996453E-2,-9.741346E-3,-1.6612157E-1,-7.046513E-2],"split_indices":[2,16,16,5,6,16,1,11,16,15,13,16,2,0,10,0,16,16,16,15,6,2,2,2,16,16,13,0,2,4,4,16,16,16,16,16,11,15,15,0,0,2,4,2,2,5,2,10,2,16,13,1,0,0,0,16,16,14,0,0,0,0,0,0,0,0,0,0,0,0,0,0,0,0,0,0,0,0,0,0,0,0,0,0,0,0,0,0,0,0,0,0,0,0,0,0,0,0,0,0,0,0,0,0,0],"split_type":[0,0,0,0,0,0,0,0,0,0,0,0,0,0,0,0,0,0,0,0,0,0,0,0,0,0,0,0,0,0,0,0,0,0,0,0,0,0,0,0,0,0,0,0,0,0,0,0,0,0,0,0,0,0,0,0,0,0,0,0,0,0,0,0,0,0,0,0,0,0,0,0,0,0,0,0,0,0,0,0,0,0,0,0,0,0,0,0,0,0,0,0,0,0,0,0,0,0,0,0,0,0,0,0,0],"sum_hessian":[1.1845E4,6.393E3,5.452E3,5.468E3,9.25E2,4.119E3,1.333E3,4.83E2,4.985E3,5.8E1,8.67E2,1.242E3,2.877E3,2.17E2,1.116E3,2E1,4.63E2,1.557E3,3.428E3,3.7E1,2.1E1,4.48E2,4.19E2,6.05E2,6.37E2,1.391E3,1.486E3,6.4E1,1.53E2,3E1,1.086E3,2.92E2,1.71E2,8.45E2,7.12E2,1.485E3,1.943E3,1.7E1,2E1,2E1,1E0,8.9E1,3.59E2,1.84E2,2.35E2,3.49E2,2.56E2,5.81E2,5.6E1,6.43E2,7.48E2,7.79E2,7.07E2,1.07E2,4.6E1,2.2E1,8E0,1.061E3,2.5E1,3E1,2.62E2,3.9E1,1.32E2,3.73E2,4.72E2,6.07E2,1.05E2,8.46E2,6.39E2,2E2,1.743E3,8E0,9E0,3E0,1.7E1,6.4E1,2.5E1,3.22E2,3.7E1,1.37E2,4.7E1,1.67E2,6.8E1,2.2E1,3.27E2,1.32E2,1.24E2,2.1E1,5.6E2,1.7E1,3.9E1,2.46E2,3.97E2,2.75E2,4.73E2,4.19E2,3.6E2,4.91E2,2.16E2,1.9E1,3E0,6E0,2E0,1.034E3,2.7E1],"tree_param":{"num_deleted":"0","num_feature":"38","num_nodes":"105","size_leaf_vector":"1"}},{"base_weights":[-7.566547E-3,-2.320627E0,2.3582368E-1,-6.8952835E-1,-2.9079347E0,5.2207285E-1,-1.6607696E0,-2.3549473E-1,-5.9179246E-1,-1.3761439E0,-3.053448E0,2.0987012E0,3.0981523E-1,-1.9255158E0,7.37479E-1,-6.858006E-1,1.2087464E0,6.232195E-2,-1.4663051E0,-3.7587533E0,-2.7961009E0,1.0561186E0,1.3651375E-1,-1.837802E0,4.65452E-1,-1.2886485E-1,-2.1621814E0,1.0015476E0,-1.5709537E-1,-5.392973E-1,-1.637355E0,7.430211E-2,2.7256463E-2,-1.1925675E-1,-6.570919E-2,-4.8658255E-1,-3.8925593E0,5.2510988E-2,-2.8679433E0,1.5731462E0,-1.6276433E-1,1.979761E0,-2.739446E0,7.085535E-1,-7.15761E-1,-1.9419258E0,1.3362429E0,3.8393717E0,-2.2468948E0,8.299271E-1,7.7249765E-2,-6.591963E-2,1.4903824E-4,-1.941416E-1,-2.4789987E-2,-8.458655E-2,-3.8291026E-2,-3.1664237E-2,8.958419E-4,-2.4068056E-1,-1.8563342E-1,3.173184E-2,-1.4441566E-1,-1.4375115E-2,9.72466E-2,6.746001E-3,-1.5660634E-2,1.0272959E-2,1.1223256E-1,9.6572295E-2,-1.7725936E-1,-1.3319065E-1,3.8739886E-2,-6.443415E-2,-6.2378234E-4,-1.7178379E-1,-8.96275E-2,9.46962E-2,3.994455E-2,-1.1868394E-2,2.3992085E-1,-1.0338922E-1,-2.006104E-1,6.4137116E-2,3.896494E-2],"categories":[],"categories_nodes":[],"categories_segments":[],"categories_sizes":[],"default_left":[0,0,0,0,0,0,1,0,0,0,0,0,0,0,0,0,0,0,0,0,0,1,0,0,1,0,0,0,0,0,0,0,0,0,0,0,0,0,0,0,0,0,0,0,0,0,0,0,1,0,0,0,0,0,0,0,0,0,0,0,0,0,0,0,0,0,0,0,0,0,0,0,0,0,0,0,0,0,0,0,0,0,0,0,0],"id":1,"left_children":[1,3,5,7,9,11,13,-1,15,17,19,21,23,25,27,29,31,-1,33,35,37,39,-1,41,43,45,47,49,51,53,55,-1,-1,-1,-1,57,59,-1,61,63,65,67,69,71,73,75,77,79,81,83,-1,-1,-1,-1,-1,-1,-1,-1,-1,-1,-1,-1,-1,-1,-1,-1,-1,-1,-1,-1,-1,-1,-1,-1,-1,-1,-1,-1,-1,-1,-1,-1,-1,-1,-1],"loss_changes":[6.6937725E3,1.0824019E3,5.8413667E3,1.15485886E2,1.8124756E2,3.1276714E3,8.97302E2,0E0,5.0762238E1,1.9325333E1,1.2725488E2,7.2735693E2,2.7550605E3,5.401572E2,3.346563E1,3.8290024E1,1.9501877E0,0E0,6.9292145E0,8.567334E1,1.5775732E2,2.6493835E2,0E0,1.9226636E3,2.207004E3,3.98388E2,5.795747E2,8.883835E0,6.138497E0,3.3706596E1,4.5789337E-1,0E0,0E0,0E0,0E0,6.7744684E-1,1.3940918E1,0E0,4.107373E1,2.0462915E2,5.685309E0,4.9828278E1,1.7041992E3,1.4257903E3,5.2862494E2,8.791107E0,2.3359665E1,6.3695404E1,3.420381E2,9.4900894E-1,0E0,0E0,0E0,0E0,0E0,0E0,0E0,0E0,0E0,0E0,0E0,0E0,0E0,0E0,0E0,0E0,0E0,0E0,0E0,0E0,0E0,0E0,0E0,0E0,0E0,0E0,0E0,0E0,0E0,0E0,0E0,0E0,0E0,0E0,0E0],"parents":[2147483647,0,0,1,1,2,2,3,3,4,4,5,5,6,6,8,8,9,9,10,10,11,11,12,12,13,13,14,14,15,15,16,16,18,18,19,19,20,20,21,21,23,23,24,24,25,25,26,26,27,27,28,28,29,29,30,30,35,35,36,36,38,38,39,39,40,40,41,41,42,42,43,43,44,44,45,45,46,46,47,47,48,48,49,49],"right_children":[2,4,6,8,10,12,14,-1,16,18,20,22,24,26,28,30,32,-1,34,36,38,40,-1,42,44,46,48,50,52,54,56,-1,-1,-1,-1,58,60,-1,62,64,66,68,70,72,74,76,78,80,82,84,-1,-1,-1,-1,-1,-1,-1,-1,-1,-1,-1,-1,-1,-1,-1,-1,-1,-1,-1,-1,-1,-1,-1,-1,-1,-1,-1,-1,-1,-1,-1,-1,-1,-1,-1],"split_conditions":[5.753928E-1,5.1643956E-1,2.6964822E0,5.4226846E-1,3.2932417E0,3.2848006E-1,2.7929168E0,-2.3549473E-1,1.3463237E0,-5.8276596E0,3.097857E0,2.0211193E-1,-5.187168E-1,-2.4199204E0,2.9301398E0,5.9307486E-1,2.664509E0,6.232195E-2,2.7175462E0,-2.9848568E0,1.4556196E-1,2.9017687E0,1.3651375E-1,-3.0369797E0,1.4054383E0,2.0211193E-1,7.046754E-1,2.8081636E0,1.4968879E0,4.536943E-1,9.6969926E-1,7.430211E-2,2.7256463E-2,-1.1925675E-1,-6.570919E-2,2.6556935E0,1.7103786E0,5.2510988E-2,-9.1093445E0,5.7918483E-1,2.99388E0,5.7918483E-1,3.5247734E0,-3.1731691E0,2.0211193E-1,-6.155142E-1,-2.9848568E0,5.1643956E-1,5.759594E-1,-2.2316082E0,7.7249765E-2,-6.591963E-2,1.4903824E-4,-1.941416E-1,-2.4789987E-2,-8.458655E-2,-3.8291026E-2,-3.1664237E-2,8.958419E-4,-2.4068056E-1,-1.8563342E-1,3.173184E-2,-1.4441566E-1,-1.4375115E-2,9.72466E-2,6.746001E-3,-1.5660634E-2,1.0272959E-2,1.1223256E-1,9.6572295E-2,-1.7725936E-1,-1.3319065E-1,3.8739886E-2,-6.443415E-2,-6.2378234E-4,-1.7178379E-1,-8.96275E-2,9.46962E-2,3.994455E-2,-1.1868394E-2,2.3992085E-1,-1.0338922E-1,-2.006104E-1,6.4137116E-2,3.896494E-2],"split_indices":[1,0,21,1,5,7,4,0,9,12,4,13,11,9,4,9,9,0,5,9,12,5,0,11,4,13,0,4,10,0,9,0,0,0,0,4,4,0,15,0,5,0,4,9,13,13,9,0,5,9,0,0,0,0,0,0,0,0,0,0,0,0,0,0,0,0,0,0,0,0,0,0,0,0,0,0,0,0,0,0,0,0,0,0,0],"split_type":[0,0,0,0,0,0,0,0,0,0,0,0,0,0,0,0,0,0,0,0,0,0,0,0,0,0,0,0,0,0,0,0,0,0,0,0,0,0,0,0,0,0,0,0,0,0,0,0,0,0,0,0,0,0,0,0,0,0,0,0,0,0,0,0,0,0,0,0,0,0,0,0,0,0,0,0,0,0,0,0,0,0,0,0,0],"sum_hessian":[1.1888E4,1.131E3,1.0757E4,3E2,8.31E2,9.347E3,1.41E3,6E0,2.94E2,7.3E1,7.58E2,1.108E3,8.239E3,1.27E3,1.4E2,2.8E2,1.4E1,2E0,7.1E1,1.99E2,5.59E2,4.19E2,6.89E2,5.56E2,7.683E3,1.48E2,1.122E3,1.08E2,3.2E1,2.44E2,3.6E1,9E0,5E0,8E0,6.3E1,8E0,1.91E2,1E1,5.49E2,2.94E2,1.25E2,1.06E2,4.5E2,6.372E3,1.311E3,6.6E1,8.2E1,1.5E1,1.107E3,8.4E1,2.4E1,3E0,2.9E1,2E0,2.42E2,3.3E1,3E0,6E0,2E0,2.7E1,1.64E2,3E0,5.46E2,4.9E1,2.45E2,4.2E1,8.3E1,1.4E1,9.2E1,6.6E1,3.84E2,1.22E2,6.25E3,7.22E2,5.89E2,4E0,6.2E1,3.9E1,4.3E1,3E0,1.2E1,1.007E3,1E2,6E0,7.8E1],"tree_param":{"num_deleted":"0","num_feature":"38","num_nodes":"85","size_leaf_vector":"1"}},{"base_weights":[-2.0790147E-2,9.75808E-1,-1.1683295E0,1.2884529E0,-8.58529E-1,-5.3625304E-1,-3.113251E0,-4.9301162E-1,1.4638852E0,1.3969731E0,-9.917413E-1,-1.735944E0,-1.654644E-2,-4.282494E0,-2.8834658E0,-2.5875652E-1,-2.603627E-1,7.122301E-1,1.8052967E0,2.0775285E-1,1.571298E-1,-5.1852334E-1,-1.4950576E0,2.6824057E-1,-3.5873137E0,8.3454597E-1,-7.652328E-1,-4.827159E0,-2.6402552E0,-1.7539978E-1,-2.967086E0,3.1640272E0,-4.1333902E-1,1.961249E0,-8.405601E-1,2.605305E0,1.1922936E0,1.4110576E0,-1.4401431E0,-1.1973356E0,-3.625917E-1,-9.43923E-1,-1.9194945E0,9.7504437E-1,-7.05706E-1,-3.8089015E0,-1.2446381E0,-2.7776086E-1,2.1547391E0,-1.8943439E0,1.6396002E-1,-2.555885E-1,-2.0579241E-1,-2.6845393E0,-4.0084007E-3,-2.3171666E-1,1.0442243E-2,-3.0215788E0,-3.8741585E-2,1.862429E-1,1.0323472E-1,-4.2206984E-2,2.0449255E-2,1.2112762E-1,8.091524E-2,-5.8229543E-2,4.7629796E-2,8.664513E-2,1.887505E-1,-7.998448E-2,7.4245594E-2,-9.774865E-2,1.2194987E-1,-1.1363467E-1,-2.6582185E-2,-1.0005909E-2,-7.056109E-2,2.9927475E-2,-2.0250443E-2,-6.2266406E-2,-1.3018567E-3,-1.0170571E-1,-5.2849777E-2,-9.854686E-2,5.7950187E-2,-6.361012E-2,-1.1933248E-2,-4.106606E-3,-1.9858205E-1,-3.2583434E-2,-8.370549E-2,4.4396408E-2,-2.9560033E-2,1.1484945E-1,-2.6338542E-1,-2.1318336E-1,-8.324203E-2,1.2688621E-2,-2.605417E-1,-1.5262423E-1,-1.07129194E-1,-1.0411483E-2,-1.6909827E-2,-1.6375156E-1,-1.398406E-1],"categories":[],"categories_nodes":[],"categories_segments":[],"categories_sizes":[],"default_left":[0,0,0,0,0,0,0,0,0,0,0,0,0,1,0,0,0,0,0,0,0,0,0,1,0,0,0,0,0,0,0,0,0,0,0,0,0,0,0,0,0,0,0,0,0,0,0,0,1,0,1,0,0,0,0,0,0,0,0,0,0,0,0,0,0,0,0,0,0,0,0,0,0,0,0,0,0,0,0,0,0,0,0,0,0,0,0,0,0,0,0,0,0,0,0,0,0,0,0,0,0,0,0,0,0],"id":2,"left_children":[1,3,5,7,9,11,13,15,17,19,21,23,25,27,29,-1,31,33,35,37,-1,39,41,43,45,47,49,51,53,55,57,59,61,63,65,67,69,71,73,75,77,79,81,83,85,87,89,91,93,95,97,-1,-1,99,-1,101,-1,103,-1,-1,-1,-1,-1,-1,-1,-1,-1,-1,-1,-1,-1,-1,-1,-1,-1,-1,-1,-1,-1,-1,-1,-1,-1,-1,-1,-1,-1,-1,-1,-1,-1,-1,-1,-1,-1,-1,-1,-1,-1,-1,-1,-1,-1,-1,-1],"loss_changes":[1.3564657E4,3.6416602E3,6.7756772E3,1.6958643E3,2.7931152E2,2.5949258E3,3.509004E2,5.291368E2,1.2659219E3,1.0729549E2,2.073927E2,4.668754E3,1.8517084E3,1.8403833E2,2.5604688E2,0E0,2.4489835E2,2.9961812E3,1.6618271E3,6.54856E1,0E0,4.740927E1,9.7137146E1,4.1716354E2,3.3475586E2,1.9977041E3,1.6223147E3,1.2162109E1,6.2469482E0,8.05774E-1,1.2894824E2,4.640091E0,1.5834418E2,1.3149976E2,4.014444E2,1.4955674E3,1.5742542E3,7.050962E1,9.380941E0,1.763404E1,1.5286129E1,5.142549E1,2.1378479E1,1.9250565E2,6.716352E1,3.6175098E2,1.367952E1,2.7053583E2,6.6883325E2,3.7245142E2,4.111543E2,0E0,0E0,4.62677E0,0E0,7.105112E-3,0E0,5.190918E1,0E0,0E0,0E0,0E0,0E0,0E0,0E0,0E0,0E0,0E0,0E0,0E0,0E0,0E0,0E0,0E0,0E0,0E0,0E0,0E0,0E0,0E0,0E0,0E0,0E0,0E0,0E0,0E0,0E0,0E0,0E0,0E0,0E0,0E0,0E0,0E0,0E0,0E0,0E0,0E0,0E0,0E0,0E0,0E0,0E0,0E0,0E0],"parents":[2147483647,0,0,1,1,2,2,3,3,4,4,5,5,6,6,7,7,8,8,9,9,10,10,11,11,12,12,13,13,14,14,16,16,17,17,18,18,19,19,21,21,22,22,23,23,24,24,25,25,26,26,27,27,28,28,29,29,30,30,31,31,32,32,33,33,34,34,35,35,36,36,37,37,38,38,39,39,40,40,41,41,42,42,43,43,44,44,45,45,46,46,47,47,48,48,49,49,50,50,53,53,55,55,57,57],"right_children":[2,4,6,8,10,12,14,16,18,20,22,24,26,28,30,-1,32,34,36,38,-1,40,42,44,46,48,50,52,54,56,58,60,62,64,66,68,70,72,74,76,78,80,82,84,86,88,90,92,94,96,98,-1,-1,100,-1,102,-1,104,-1,-1,-1,-1,-1,-1,-1,-1,-1,-1,-1,-1,-1,-1,-1,-1,-1,-1,-1,-1,-1,-1,-1,-1,-1,-1,-1,-1,-1,-1,-1,-1,-1,-1,-1,-1,-1,-1,-1,-1,-1,-1,-1,-1,-1,-1,-1],"split_conditions":[1.3297953E-1,1.0495075E0,7.6616776E-1,1.6905056E0,-8.399397E-1,-4.6163774E-1,5.753928E-1,-5.187168E-1,-4.6163774E-1,-2.834391E0,1.0197381E0,-6.505309E-1,1.0504173E-1,2.5794435E0,-2.4832742E0,-2.5875652E-1,-5.1367154E0,-7.449775E-1,-1.78298E-1,-5.212801E0,1.571298E-1,-6.4080226E-1,-5.067466E-1,9.551876E-1,-5.5608433E-1,-2.7274457E-1,2.0211193E-1,1.7196168E0,1.7106335E0,1.2384007E0,1.4968879E0,-1.78298E-1,-2.7274457E-1,-1.8783364E0,-5.5608433E-1,-2.7274457E-1,-5.187168E-1,-1.0955756E1,-3.4922493E0,1.5247054E0,-1.4783593E0,-5.607845E-1,-9.64739E-2,2.8557131E0,2.2078288E0,-2.4832742E0,5.1643956E-1,-2.7965448E0,2.8088043E0,4.374895E-1,8.522932E-1,-2.555885E-1,-2.0579241E-1,5.9307486E-1,-4.0084007E-3,1.143954E0,1.0442243E-2,1.143954E0,-3.8741585E-2,1.862429E-1,1.0323472E-1,-4.2206984E-2,2.0449255E-2,1.2112762E-1,8.091524E-2,-5.8229543E-2,4.7629796E-2,8.664513E-2,1.887505E-1,-7.998448E-2,7.4245594E-2,-9.774865E-2,1.2194987E-1,-1.1363467E-1,-2.6582185E-2,-1.0005909E-2,-7.056109E-2,2.9927475E-2,-2.0250443E-2,-6.2266406E-2,-1.3018567E-3,-1.0170571E-1,-5.2849777E-2,-9.854686E-2,5.7950187E-2,-6.361012E-2,-1.1933248E-2,-4.106606E-3,-1.9858205E-1,-3.2583434E-2,-8.370549E-2,4.4396408E-2,-2.9560033E-2,1.1484945E-1,-2.6338542E-1,-2.1318336E-1,-8.324203E-2,1.2688621E-2,-2.605417E-1,-1.5262423E-1,-1.07129194E-1,-1.0411483E-2,-1.6909827E-2,-1.6375156E-1,-1.398406E-1],"split_indices":[2,16,16,5,6,16,1,11,16,15,13,16,16,2,10,0,10,16,16,15,0,2,2,2,16,16,13,2,16,16,10,16,16,16,16,16,11,6,15,5,9,2,2,5,2,10,0,9,3,23,5,0,0,9,0,16,0,16,0,0,0,0,0,0,0,0,0,0,0,0,0,0,0,0,0,0,0,0,0,0,0,0,0,0,0,0,0,0,0,0,0,0,0,0,0,0,0,0,0,0,0,0,0,0,0],"split_type":[0,0,0,0,0,0,0,0,0,0,0,0,0,0,0,0,0,0,0,0,0,0,0,0,0,0,0,0,0,0,0,0,0,0,0,0,0,0,0,0,0,0,0,0,0,0,0,0,0,0,0,0,0,0,0,0,0,0,0,0,0,0,0,0,0,0,0,0,0,0,0,0,0,0,0,0,0,0,0,0,0,0,0,0,0,0,0,0,0,0,0,0,0,0,0,0,0,0,0,0,0,0,0,0,0],"sum_hessian":[1.1859E4,6.347E3,5.512E3,5.423E3,9.24E2,4.161E3,1.351E3,4.86E2,4.937E3,5.1E1,8.73E2,1.257E3,2.904E3,2.19E2,1.132E3,2.2E1,4.64E2,1.543E3,3.394E3,3.1E1,2E1,4.51E2,4.22E2,6.04E2,6.53E2,1.359E3,1.545E3,1.63E2,5.6E1,3.4E1,1.098E3,1.9E1,4.45E2,8.55E2,6.88E2,1.471E3,1.923E3,1.8E1,1.3E1,8.3E1,3.68E2,1.85E2,2.37E2,3.5E2,2.54E2,5.96E2,5.7E1,7.38E2,6.21E2,6.97E2,8.48E2,1.12E2,5.1E1,5.5E1,1E0,3E1,4E0,1.071E3,2.7E1,1.1E1,8E0,2.92E2,1.53E2,3.62E2,4.93E2,5.83E2,1.05E2,8.44E2,6.27E2,1.82E2,1.741E3,4E0,1.4E1,6E0,7E0,1.5E1,6.8E1,1.5E1,3.53E2,1.39E2,4.6E1,2.08E2,2.9E1,2E1,3.3E2,1.14E2,1.4E2,2.5E1,5.71E2,2.5E1,3.2E1,1.56E2,5.82E2,6.1E2,1.1E1,6E1,6.37E2,8.35E2,1.3E1,3E1,2.5E1,2.7E1,3E0,4.97E2,5.74E2],"tree_param":{"num_deleted":"0","num_feature":"38","num_nodes":"105","size_leaf_vector":"1"}},{"base_weights":[1.3285884E-2,9.592264E-1,-1.0904005E0,1.2501525E0,-7.9572743E-1,-4.9265355E-1,-2.9346867E0,2.8798182E0,1.0793957E0,1.2153077E0,-9.1945744E-1,-1.6321768E0,-2.6497734E-3,-4.013865E0,-2.7254632E0,4.157962E0,1.5856209E0,-1.2459002E0,1.2132596E0,2.499441E-1,2.5642316E0,-4.819094E-1,-1.3909645E0,2.7045527E-1,-3.3850195E0,-8.445843E-1,7.061233E-1,-4.5828323E0,-2.502328E0,-1.3061097E-1,-2.8088174E0,2.9499662E0,4.490208E0,1.3268547E-1,1.3842156E0,7.689173E-1,-4.624841E0,4.2610648E-1,1.6390836E0,1.7828189E0,-8.926976E-1,1.9317979E0,1.7147581E-1,-1.0707235E0,-3.2752293E-1,-8.642028E-1,-1.8268584E0,9.969036E-1,-7.459081E-1,-3.613514E0,-1.134484E0,1.5953164E-1,-1.7728189E0,-2.646191E-1,7.831175E-1,-2.4097045E-1,-1.9775294E-1,-1.270714E-1,-3.908193E-3,-2.409967E-1,2.2732364E-1,-2.859666E0,-3.1092366E-2,1.6524053E-1,1.12543516E-1,2.688819E-1,1.9840921E-1,7.400061E-2,5.0005645E-2,8.466693E-2,-1.489286E-1,-2.7290294E-1,1.3442907E-1,7.305413E-2,-4.2236578E-2,-2.1403609E-1,8.39866E-2,1.474309E-2,9.372978E-2,-1.862661E-1,-1.7015554E-2,1.1333481E-1,-8.16807E-3,-1.7073884E-3,-6.361052E-2,-1.1779291E-2,-5.216698E-2,6.0126036E-2,-4.997186E-2,-7.901123E-2,-1.19667105E-1,-9.148339E-2,5.874169E-2,-6.04445E-2,-1.1083746E-2,-3.628042E-3,-1.888893E-1,-3.3036705E-2,-7.715861E-2,-3.2421887E-2,7.156779E-2,-2.4886464E-1,-7.700455E-2,-2.4142174E-2,5.738137E-2,-1.8248685E-2,9.15367E-3,1.5756866E-2,-1.1879647E-2,-1.4528231E-1,-5.8978308E-2],"categories":[],"categories_nodes":[],"categories_segments":[],"categories_sizes":[],"default_left":[0,0,0,0,0,0,0,0,0,0,0,0,0,1,0,0,0,0,0,0,0,0,0,1,0,0,0,0,0,0,1,0,0,0,1,0,0,0,0,0,0,0,0,0,1,0,0,0,0,0,0,0,0,0,0,0,0,0,0,0,0,0,0,0,0,0,0,0,0,0,0,0,0,0,0,0,0,0,0,0,0,0,0,0,0,0,0,0,0,0,0,0,0,0,0,0,0,0,0,0,0,0,0,0,0,0,0,0,0,0,0],"id":3,"left_children":[1,3,5,7,9,11,13,15,17,19,21,23,25,27,29,31,33,35,37,39,41,43,45,47,49,51,53,55,57,59,61,63,65,-1,67,69,71,73,75,77,79,81,-1,83,85,87,89,91,93,95,97,99,101,-1,103,-1,-1,-1,-1,105,107,109,-1,-1,-1,-1,-1,-1,-1,-1,-1,-1,-1,-1,-1,-1,-1,-1,-1,-1,-1,-1,-1,-1,-1,-1,-1,-1,-1,-1,-1,-1,-1,-1,-1,-1,-1,-1,-1,-1,-1,-1,-1,-1,-1,-1,-1,-1,-1,-1,-1],"loss_changes":[1.2358087E4,3.2553154E3,6.021055E3,1.5185078E3,2.2680194E2,2.304391E3,2.9094043E2,8.502671E2,1.5426245E3,6.837578E1,1.7572223E2,4.1396694E3,1.7233862E3,1.7343555E2,2.4252832E2,9.110547E1,5.204248E1,1.8417026E3,1.5686548E3,5.764037E1,5.4140472E0,4.0101997E1,9.279181E1,4.4079153E2,3.280962E2,1.2305956E3,7.283254E2,3.9592285E0,5.5832214E0,1.4771757E0,1.19211914E2,7.1974487E0,7.223877E1,0E0,6.614868E0,5.939678E2,6.3013525E2,2.1648809E3,7.382261E2,1.3590851E0,2.8461597E1,1.0895275E1,0E0,1.9171356E1,2.3050991E1,5.3746338E1,2.7513916E1,1.7716998E2,6.0166916E1,3.4058936E2,1.0790955E1,6.534509E2,5.039331E2,0E0,7.1534827E2,0E0,0E0,0E0,0E0,1.538915E0,4.4230875E-1,7.869141E1,0E0,0E0,0E0,0E0,0E0,0E0,0E0,0E0,0E0,0E0,0E0,0E0,0E0,0E0,0E0,0E0,0E0,0E0,0E0,0E0,0E0,0E0,0E0,0E0,0E0,0E0,0E0,0E0,0E0,0E0,0E0,0E0,0E0,0E0,0E0,0E0,0E0,0E0,0E0,0E0,0E0,0E0,0E0,0E0,0E0,0E0,0E0,0E0,0E0],"parents":[2147483647,0,0,1,1,2,2,3,3,4,4,5,5,6,6,7,7,8,8,9,9,10,10,11,11,12,12,13,13,14,14,15,15,16,16,17,17,18,18,19,19,20,20,21,21,22,22,23,23,24,24,25,25,26,26,27,27,28,28,29,29,30,30,31,31,32,32,34,34,35,35,36,36,37,37,38,38,39,39,40,40,41,41,43,43,44,44,45,45,46,46,47,47,48,48,49,49,50,50,51,51,52,52,54,54,59,59,60,60,61,61],"right_children":[2,4,6,8,10,12,14,16,18,20,22,24,26,28,30,32,34,36,38,40,42,44,46,48,50,52,54,56,58,60,62,64,66,-1,68,70,72,74,76,78,80,82,-1,84,86,88,90,92,94,96,98,100,102,-1,104,-1,-1,-1,-1,106,108,110,-1,-1,-1,-1,-1,-1,-1,-1,-1,-1,-1,-1,-1,-1,-1,-1,-1,-1,-1,-1,-1,-1,-1,-1,-1,-1,-1,-1,-1,-1,-1,-1,-1,-1,-1,-1,-1,-1,-1,-1,-1,-1,-1,-1,-1,-1,-1,-1,-1],"split_conditions":[1.3297953E-1,1.0495075E0,7.6616776E-1,3.2848006E-1,-8.399397E-1,-4.6163774E-1,5.753928E-1,-1.78298E-1,-5.187168E-1,-2.834391E0,1.0197381E0,-6.505309E-1,2.0211193E-1,2.5794435E0,-2.4832742E0,-2.7274457E-1,-5.404164E-1,2.0211193E-1,-4.6163774E-1,-7.591211E0,-5.1343904E0,-6.4080226E-1,-5.067466E-1,9.551876E-1,-5.5608433E-1,1.0504173E-1,-6.463436E0,1.7196168E0,1.7106335E0,2.8081636E0,3.2350802E0,-5.273226E-1,-4.6310058E-1,1.3268547E-1,2.7175462E0,-1.8979327E-1,-1.17673405E-1,-1.311657E0,-1.5391928E0,-1.1242053E1,-1.0955756E1,-3.9991775E-1,1.7147581E-1,5.759594E-1,3.3570564E0,-8.3700156E-1,-1.3637884E-1,2.8557131E0,2.2124012E0,-2.4832742E0,5.1643956E-1,-2.7274457E-1,2.3355062E0,-2.646191E-1,5.753928E-1,-2.4097045E-1,-1.9775294E-1,-1.270714E-1,-3.908193E-3,1.143954E0,1.143954E0,1.4549321E1,-3.1092366E-2,1.6524053E-1,1.12543516E-1,2.688819E-1,1.9840921E-1,7.400061E-2,5.0005645E-2,8.466693E-2,-1.489286E-1,-2.7290294E-1,1.3442907E-1,7.305413E-2,-4.2236578E-2,-2.1403609E-1,8.39866E-2,1.474309E-2,9.372978E-2,-1.862661E-1,-1.7015554E-2,1.1333481E-1,-8.16807E-3,-1.7073884E-3,-6.361052E-2,-1.1779291E-2,-5.216698E-2,6.0126036E-2,-4.997186E-2,-7.901123E-2,-1.19667105E-1,-9.148339E-2,5.874169E-2,-6.04445E-2,-1.1083746E-2,-3.628042E-3,-1.888893E-1,-3.3036705E-2,-7.715861E-2,-3.2421887E-2,7.156779E-2,-2.4886464E-1,-7.700455E-2,-2.4142174E-2,5.738137E-2,-1.8248685E-2,9.15367E-3,1.5756866E-2,-1.1879647E-2,-1.4528231E-1,-5.8978308E-2],"split_indices":[2,16,16,7,6,16,1,16,11,15,13,16,13,2,10,16,2,13,16,15,6,2,2,2,16,16,10,2,16,4,4,2,2,0,5,2,2,16,12,6,6,2,0,5,4,2,2,5,2,10,0,16,4,0,1,0,0,0,0,16,16,14,0,0,0,0,0,0,0,0,0,0,0,0,0,0,0,0,0,0,0,0,0,0,0,0,0,0,0,0,0,0,0,0,0,0,0,0,0,0,0,0,0,0,0,0,0,0,0,0,0],"split_type":[0,0,0,0,0,0,0,0,0,0,0,0,0,0,0,0,0,0,0,0,0,0,0,0,0,0,0,0,0,0,0,0,0,0,0,0,0,0,0,0,0,0,0,0,0,0,0,0,0,0,0,0,0,0,0,0,0,0,0,0,0,0,0,0,0,0,0,0,0,0,0,0,0,0,0,0,0,0,0,0,0,0,0,0,0,0,0,0,0,0,0,0,0,0,0,0,0,0,0,0,0,0,0,0,0,0,0,0,0,0,0],"sum_hessian":[1.1835E4,6.373E3,5.462E3,5.467E3,9.06E2,4.126E3,1.336E3,5.17E2,4.95E3,5.2E1,8.54E2,1.24E3,2.886E3,2.14E2,1.122E3,2.59E2,2.58E2,2.69E2,4.681E3,3.1E1,2.1E1,4.44E2,4.1E2,5.95E2,6.45E2,1.319E3,1.567E3,1.54E2,6E1,3.5E1,1.087E3,5.8E1,2.01E2,3.9E1,2.19E2,1.69E2,1E2,1.644E3,3.037E3,1.3E1,1.8E1,1.4E1,7E0,9.1E1,3.53E2,1.87E2,2.23E2,3.47E2,2.48E2,5.85E2,6E1,6.34E2,6.85E2,1.9E1,1.548E3,1.07E2,4.7E1,5.9E1,1E0,2.7E1,8E0,1.062E3,2.5E1,3.6E1,2.2E1,7.1E1,1.3E2,1.73E2,4.6E1,1.36E2,3.3E1,9E1,1E1,9.06E2,7.38E2,2E1,3.017E3,1E0,1.2E1,2E0,1.6E1,1.2E1,2E0,1.5E1,7.6E1,3.14E2,3.9E1,1.1E1,1.76E2,1.58E2,6.5E1,2E1,3.27E2,1.31E2,1.17E2,2.6E1,5.59E2,2.9E1,3.1E1,3.88E2,2.46E2,4.5E1,6.4E2,3.46E2,1.202E3,2.1E1,6E0,7E0,1E0,1.033E3,2.9E1],"tree_param":{"num_deleted":"0","num_feature":"38","num_nodes":"111","size_leaf_vector":"1"}},{"base_weights":[-6.296366E-5,9.084917E-1,-1.062658E0,1.183236E0,-7.403687E-1,-4.893236E-1,-2.8304663E0,-4.4759625E-1,1.3456209E0,1.5538262E0,-7.8055507E-1,-1.543264E0,-2.7938498E-2,-3.867428E0,-2.6242554E0,-2.3173845E-1,-2.707243E-1,6.2293303E-1,1.6741638E0,4.7174655E-2,1.02311134E-1,-5.7819605E-1,-1.3304174E0,2.4123843E-1,-3.223007E0,7.5479573E-1,-7.1512383E-1,-4.3622956E0,-1.22573905E-1,-1.1621781E-1,-2.7078264E0,3.0693266E0,-4.0111688E-1,1.7977091E0,-7.780665E-1,2.433567E0,1.0932481E0,-9.302162E-1,-3.4619743E-1,-2.7830734E0,-1.1409215E0,8.6777204E-1,-6.717449E-1,-1.1316895E-3,-3.3520179E0,-2.7930698E-1,1.934947E0,-1.7406679E0,1.1760984E-1,-2.3055248E-1,-1.8589203E-1,-1.6161178E-1,1.0331297E-2,-2.7478569E0,-3.2982107E-2,9.719911E-2,1.7350003E-1,8.855536E-2,-2.8129447E-2,1.09549515E-1,7.426327E-2,-5.390058E-2,4.6919744E-2,7.837253E-2,1.7763905E-1,-6.584757E-2,6.766854E-2,4.6377808E-2,-5.402642E-2,1.5996689E-1,-1.9979134E-2,-7.358261E-2,-1.6288976E-1,-3.3020087E-2,-7.4552946E-2,-8.998359E-2,5.230946E-2,-9.680051E-3,-5.703448E-2,-1.7843173E-1,-5.533255E-2,-7.222714E-2,-4.2481087E-3,-2.1690641E-1,1.0481574E-1,-7.416611E-3,-1.10197045E-1,1.0600067E-2,-2.3843001E-1,-7.0874663E-3,-1.2224584E-2,-1.3947491E-1,-4.187872E-2],"categories":[],"categories_nodes":[],"categories_segments":[],"categories_sizes":[],"default_left":[0,0,0,0,0,0,0,0,0,0,0,0,0,1,0,0,0,0,0,0,0,0,0,1,0,0,0,0,0,0,0,0,0,0,0,0,0,0,0,0,0,0,0,0,0,0,0,0,1,0,0,0,0,0,0,0,0,0,0,0,0,0,0,0,0,0,0,0,0,0,0,0,0,0,0,0,0,0,0,0,0,0,0,0,0,0,0,0,0,0,0,0,0],"id":4,"left_children":[1,3,5,7,9,11,13,15,17,19,21,23,25,27,29,-1,31,33,35,-1,-1,37,39,41,43,45,47,49,-1,51,53,55,57,59,61,63,65,67,69,71,73,75,77,-1,79,81,83,85,87,-1,-1,89,-1,91,-1,-1,-1,-1,-1,-1,-1,-1,-1,-1,-1,-1,-1,-1,-1,-1,-1,-1,-1,-1,-1,-1,-1,-1,-1,-1,-1,-1,-1,-1,-1,-1,-1,-1,-1,-1,-1,-1,-1],"loss_changes":[1.1402643E4,2.8852227E3,5.516356E3,1.4460044E3,8.511047E1,1.9995088E3,2.7488965E2,3.6533896E2,1.1775801E3,2.877819E0,9.881708E1,3.753654E3,1.5394246E3,1.4276123E2,2.333877E2,0E0,2.0853764E2,2.5574204E3,1.50254E3,0E0,0E0,5.3252274E1,6.2890106E1,3.483679E2,2.662339E2,1.6334326E3,1.3017086E3,8.666748E0,0E0,5.756341E-1,8.66543E1,1.3704987E0,1.6199228E2,1.0057788E2,3.6603613E2,1.4271592E3,1.214926E3,7.3606155E1,7.642226E1,1.2014786E1,3.5020355E1,1.7368918E2,5.5386475E1,0E0,2.976089E2,1.6156796E2,6.417637E2,5.035127E2,3.8935532E2,0E0,0E0,1.9667983E-2,0E0,8.182471E1,0E0,0E0,0E0,0E0,0E0,0E0,0E0,0E0,0E0,0E0,0E0,0E0,0E0,0E0,0E0,0E0,0E0,0E0,0E0,0E0,0E0,0E0,0E0,0E0,0E0,0E0,0E0,0E0,0E0,0E0,0E0,0E0,0E0,0E0,0E0,0E0,0E0,0E0,0E0],"parents":[2147483647,0,0,1,1,2,2,3,3,4,4,5,5,6,6,7,7,8,8,9,9,10,10,11,11,12,12,13,13,14,14,16,16,17,17,18,18,21,21,22,22,23,23,24,24,25,25,26,26,27,27,29,29,30,30,31,31,32,32,33,33,34,34,35,35,36,36,37,37,38,38,39,39,40,40,41,41,42,42,44,44,45,45,46,46,47,47,48,48,51,51,53,53],"right_children":[2,4,6,8,10,12,14,16,18,20,22,24,26,28,30,-1,32,34,36,-1,-1,38,40,42,44,46,48,50,-1,52,54,56,58,60,62,64,66,68,70,72,74,76,78,-1,80,82,84,86,88,-1,-1,90,-1,92,-1,-1,-1,-1,-1,-1,-1,-1,-1,-1,-1,-1,-1,-1,-1,-1,-1,-1,-1,-1,-1,-1,-1,-1,-1,-1,-1,-1,-1,-1,-1,-1,-1,-1,-1,-1,-1,-1,-1],"split_conditions":[1.3297953E-1,1.0495075E0,7.6616776E-1,1.6905056E0,-7.591211E0,-4.6163774E-1,5.753928E-1,-5.187168E-1,-4.6163774E-1,1.4549321E1,-2.4611744E-1,-6.505309E-1,1.0504173E-1,2.5794435E0,-2.4832742E0,-2.3173845E-1,-5.1367154E0,-7.449775E-1,-1.78298E-1,4.7174655E-2,1.02311134E-1,-5.607845E-1,-2.301139E-1,9.551876E-1,-2.4832742E0,-2.7274457E-1,2.0211193E-1,1.7196168E0,-1.22573905E-1,1.2384007E0,1.4968879E0,-5.5608433E-1,-1.8783364E0,-1.8783364E0,-5.5608433E-1,-2.7274457E-1,-5.187168E-1,-7.96681E-1,-5.404164E-1,-2.3655687E-1,-1.3637884E-1,2.8557131E0,5.7918483E-1,-1.1316895E-3,-5.5608433E-1,5.753928E-1,4.374895E-1,3.2848006E-1,8.522932E-1,-2.3055248E-1,-1.8589203E-1,1.143954E0,1.0331297E-2,1.4549321E1,-3.2982107E-2,9.719911E-2,1.7350003E-1,8.855536E-2,-2.8129447E-2,1.09549515E-1,7.426327E-2,-5.390058E-2,4.6919744E-2,7.837253E-2,1.7763905E-1,-6.584757E-2,6.766854E-2,4.6377808E-2,-5.402642E-2,1.5996689E-1,-1.9979134E-2,-7.358261E-2,-1.6288976E-1,-3.3020087E-2,-7.4552946E-2,-8.998359E-2,5.230946E-2,-9.680051E-3,-5.703448E-2,-1.7843173E-1,-5.533255E-2,-7.222714E-2,-4.2481087E-3,-2.1690641E-1,1.0481574E-1,-7.416611E-3,-1.10197045E-1,1.0600067E-2,-2.3843001E-1,-7.0874663E-3,-1.2224584E-2,-1.3947491E-1,-4.187872E-2],"split_indices":[2,16,16,5,15,16,1,11,16,14,2,16,16,2,10,0,10,16,16,0,0,2,2,2,10,16,13,2,0,16,10,16,16,16,16,16,11,2,2,2,2,5,0,0,16,1,23,7,5,0,0,16,0,14,0,0,0,0,0,0,0,0,0,0,0,0,0,0,0,0,0,0,0,0,0,0,0,0,0,0,0,0,0,0,0,0,0,0,0,0,0,0,0],"split_type":[0,0,0,0,0,0,0,0,0,0,0,0,0,0,0,0,0,0,0,0,0,0,0,0,0,0,0,0,0,0,0,0,0,0,0,0,0,0,0,0,0,0,0,0,0,0,0,0,0,0,0,0,0,0,0,0,0,0,0,0,0,0,0,0,0,0,0,0,0,0,0,0,0,0,0,0,0,0,0,0,0,0,0,0,0,0,0,0,0,0,0,0,0],"sum_hessian":[1.1809E4,6.366E3,5.443E3,5.457E3,9.09E2,4.111E3,1.332E3,4.94E2,4.963E3,1.5E1,8.94E2,1.251E3,2.86E3,2.18E2,1.114E3,1.9E1,4.75E2,1.552E3,3.411E3,8E0,7E0,6.55E2,2.39E2,6.07E2,6.44E2,1.337E3,1.523E3,1.6E2,5.8E1,3.6E1,1.078E3,1.7E1,4.58E2,8.44E2,7.08E2,1.477E3,1.934E3,2.59E2,3.96E2,2.6E1,2.13E2,3.6E2,2.47E2,2.5E1,6.19E2,7.13E2,6.24E2,6.82E2,8.41E2,1.11E2,4.9E1,3.2E1,4E0,1.057E3,2.1E1,6E0,1.1E1,3.1E1,4.27E2,3.71E2,4.73E2,6.03E2,1.05E2,8.34E2,6.43E2,1.88E2,1.746E3,1.9E1,2.4E2,5E0,3.91E2,8E0,1.8E1,9.1E1,1.22E2,2.2E1,3.38E2,1.23E2,1.24E2,5.64E2,5.5E1,1.01E2,6.12E2,1.5E1,6.09E2,1.54E2,5.28E2,8.26E2,1.5E1,2.8E1,4E0,1.034E3,2.3E1],"tree_param":{"num_deleted":"0","num_feature":"38","num_nodes":"93","size_leaf_vector":"1"}},{"base_weights":[-1.5845533E-2,4.1697332E-1,-1.8220757E0,-1.5434965E0,6.2643415E-1,-3.6347778E0,-1.63323E0,-6.2336434E-2,-2.0703773E0,-1.9577304E-1,9.7066784E-1,-2.3119895E0,-2.0643611E-1,-1.3526467E0,-2.4205992E0,-2.2191064E-1,4.7779027E-2,-2.7087567E0,-1.5895683E0,1.126675E0,-1.8974079E0,-6.7998075E-1,1.1745055E0,-1.2724411E-1,-9.502999E-2,1.3246777E0,-1.4565848E0,-3.7462223E-1,-2.710875E0,-7.4115396E-1,7.377221E-1,-1.1791319E0,-3.54866E0,2.2302279E-1,-2.005061E0,3.8224247E-1,1.4421837E0,-1.7249281E0,-3.111014E0,1.14432134E-1,-4.157247E0,1.3372858E0,-5.131813E-1,3.987415E-1,2.6198065E0,1.3110921E-1,-1.5260478E0,-1.6761677E-1,-3.4521136E-2,-3.3372054E0,-2.4389172E0,-8.26488E-3,-7.974334E-2,-4.608291E-2,4.6665933E-2,-2.3537676E-4,-6.582572E-2,-2.153257E-1,-1.11957386E-1,2.7527137E-2,-2.2034302E-1,-1.2662067E-1,-5.8859628E-2,-3.5154175E-2,7.456255E-2,-2.2642251E-2,7.5630926E-2,-1.7335285E-1,-8.20729E-2,-1.8866435E-3,-1.8788448E-1,1.8987386E-2,-2.72558E-1,1.1224451E-1,-2.558803E-1,9.057537E-2,4.4228848E-2,-9.748916E-2,2.9364163E-2,6.910504E-2,-5.8750935E-2,1.3374715E-1,3.3791747E-2,2.3912465E-2,-9.9482555E-3,-1.0246987E-2,-8.008482E-2,-1.4691359E-2,1.7091278E-2,-1.330979E-1,-1.7586082E-1,6.9742748E-3,-1.341071E-1],"categories":[],"categories_nodes":[],"categories_segments":[],"categories_sizes":[],"default_left":[0,0,0,0,0,0,0,0,0,0,0,0,0,0,0,0,0,0,0,0,0,0,0,0,0,0,0,0,0,0,0,0,0,1,0,0,0,0,0,1,0,0,0,0,0,0,0,0,0,0,0,0,0,0,0,0,0,0,0,0,0,0,0,0,0,0,0,0,0,0,0,0,0,0,0,0,0,0,0,0,0,0,0,0,0,0,0,0,0,0,0,0,0],"id":5,"left_children":[1,3,5,7,9,11,13,15,17,19,21,23,-1,25,27,-1,29,31,33,35,37,39,41,-1,-1,43,45,47,49,51,53,55,57,59,61,63,65,67,69,71,73,75,77,79,81,83,85,87,-1,89,91,-1,-1,-1,-1,-1,-1,-1,-1,-1,-1,-1,-1,-1,-1,-1,-1,-1,-1,-1,-1,-1,-1,-1,-1,-1,-1,-1,-1,-1,-1,-1,-1,-1,-1,-1,-1,-1,-1,-1,-1,-1,-1],"loss_changes":[9.293665E3,3.9390203E3,7.807173E2,7.2251685E2,2.4526577E3,1.315852E2,4.569077E2,1.1778386E2,2.0533301E2,5.7584653E3,2.0559224E3,1.0075684E0,0E0,4.2991724E2,3.2325244E2,0E0,1.3063898E2,3.7095923E2,2.9566956E2,3.3766858E2,2.2886597E2,1.8567985E3,1.4943511E3,0E0,0E0,6.850936E1,1.6353394E2,4.39497E0,7.328125E1,5.479736E1,4.240503E1,1.6935059E1,1.7693164E2,1.146382E2,1.3628723E2,5.186118E2,1.356294E2,1.3710742E2,2.741217E2,8.112679E2,7.80032E2,1.0630166E3,7.584103E2,5.5788994E1,7.6460266E-1,7.313823E0,1.4148657E2,2.8652053E0,0E0,7.897705E0,2.117174E2,0E0,0E0,0E0,0E0,0E0,0E0,0E0,0E0,0E0,0E0,0E0,0E0,0E0,0E0,0E0,0E0,0E0,0E0,0E0,0E0,0E0,0E0,0E0,0E0,0E0,0E0,0E0,0E0,0E0,0E0,0E0,0E0,0E0,0E0,0E0,0E0,0E0,0E0,0E0,0E0,0E0,0E0],"parents":[2147483647,0,0,1,1,2,2,3,3,4,4,5,5,6,6,7,7,8,8,9,9,10,10,11,11,13,13,14,14,16,16,17,17,18,18,19,19,20,20,21,21,22,22,25,25,26,26,27,27,28,28,29,29,30,30,31,31,32,32,33,33,34,34,35,35,36,36,37,37,38,38,39,39,40,40,41,41,42,42,43,43,44,44,45,45,46,46,47,47,49,49,50,50],"right_children":[2,4,6,8,10,12,14,16,18,20,22,24,-1,26,28,-1,30,32,34,36,38,40,42,-1,-1,44,46,48,50,52,54,56,58,60,62,64,66,68,70,72,74,76,78,80,82,84,86,88,-1,90,92,-1,-1,-1,-1,-1,-1,-1,-1,-1,-1,-1,-1,-1,-1,-1,-1,-1,-1,-1,-1,-1,-1,-1,-1,-1,-1,-1,-1,-1,-1,-1,-1,-1,-1,-1,-1,-1,-1,-1,-1,-1,-1],"split_conditions":[7.6616776E-1,5.753928E-1,5.753928E-1,5.1643956E-1,-5.5608433E-1,5.7918483E-1,2.6964822E0,5.4226846E-1,-2.7274457E-1,-7.449775E-1,-5.187168E-1,5.9307486E-1,-2.0643611E-1,-1.719141E-1,3.280821E0,-2.2191064E-1,-4.6163774E-1,-8.39424E-1,3.8838145E-1,5.093696E-1,2.6964822E0,2.0211193E-1,2.6964822E0,-1.2724411E-1,-9.502999E-2,-2.834391E0,1.4054383E0,2.9301398E0,1.143954E0,-6.505309E-1,5.588306E-1,2.2287772E0,-4.6163774E-1,7.310446E0,2.0211193E-1,-6.155142E-1,5.7918483E-1,-5.056291E0,2.9301398E0,2.8088043E0,2.8081636E0,-1.78298E-1,2.0211193E-1,-5.212801E0,-9.35372E-1,-6.155142E-1,1.0495075E0,2.8081636E0,-3.4521136E-2,8.6061436E-1,1.4272938E0,-8.26488E-3,-7.974334E-2,-4.608291E-2,4.6665933E-2,-2.3537676E-4,-6.582572E-2,-2.153257E-1,-1.11957386E-1,2.7527137E-2,-2.2034302E-1,-1.2662067E-1,-5.8859628E-2,-3.5154175E-2,7.456255E-2,-2.2642251E-2,7.5630926E-2,-1.7335285E-1,-8.20729E-2,-1.8866435E-3,-1.8788448E-1,1.8987386E-2,-2.72558E-1,1.1224451E-1,-2.558803E-1,9.057537E-2,4.4228848E-2,-9.748916E-2,2.9364163E-2,6.910504E-2,-5.8750935E-2,1.3374715E-1,3.3791747E-2,2.3912465E-2,-9.9482555E-3,-1.0246987E-2,-8.008482E-2,-1.4691359E-2,1.7091278E-2,-1.330979E-1,-1.7586082E-1,6.9742748E-3,-1.341071E-1],"split_indices":[16,1,1,0,16,0,21,1,16,16,11,9,0,6,4,0,16,16,16,24,21,13,21,0,0,15,4,4,16,16,1,4,16,3,13,13,0,9,4,3,4,16,13,15,6,13,16,4,0,16,16,0,0,0,0,0,0,0,0,0,0,0,0,0,0,0,0,0,0,0,0,0,0,0,0,0,0,0,0,0,0,0,0,0,0,0,0,0,0,0,0,0,0],"split_type":[0,0,0,0,0,0,0,0,0,0,0,0,0,0,0,0,0,0,0,0,0,0,0,0,0,0,0,0,0,0,0,0,0,0,0,0,0,0,0,0,0,0,0,0,0,0,0,0,0,0,0,0,0,0,0,0,0,0,0,0,0,0,0,0,0,0,0,0,0,0,0,0,0,0,0,0,0,0,0,0,0,0,0,0,0,0,0,0,0,0,0,0,0],"sum_hessian":[1.1886E4,9.589E3,2.297E3,9.25E2,8.664E3,2.15E2,2.082E3,2.43E2,6.82E2,2.557E3,6.107E3,6E1,1.55E2,1.537E3,5.45E2,5E0,2.38E2,2.91E2,3.91E2,1.439E3,1.118E3,6.71E2,5.436E3,3.5E1,2.5E1,5.7E1,1.48E3,6.8E1,4.77E2,1.11E2,1.27E2,1.04E2,1.87E2,7.3E1,3.18E2,4.29E2,1.01E3,9.81E2,1.37E2,5.47E2,1.24E2,4.958E3,4.78E2,3.4E1,2.3E1,6.2E1,1.418E3,4.2E1,2.6E1,1.41E2,3.36E2,6.7E1,4.4E1,1.3E1,1.14E2,1.1E1,9.3E1,1.17E2,7E1,6.9E1,4E0,1.93E2,1.25E2,2.17E2,2.12E2,3.6E1,9.74E2,4.3E1,9.38E2,2.4E1,1.13E2,5.23E2,2.4E1,1.6E1,1.08E2,2.42E3,2.538E3,2.07E2,2.71E2,2.1E1,1.3E1,2.2E1,1E0,3E1,3.2E1,7.7E1,1.341E3,3.4E1,8E0,3.3E1,1.08E2,2.9E1,3.07E2],"tree_param":{"num_deleted":"0","num_feature":"38","num_nodes":"93","size_leaf_vector":"1"}},{"base_weights":[-3.8349254E-3,9.654996E-1,-8.2139444E-1,1.2160962E0,-5.7941085E-1,-3.3287004E-1,-2.401714E0,-3.6950675E-1,1.3884666E0,2.929838E0,-6.688511E-1,1.2217325E0,-5.960254E-1,-9.9267703E-1,-2.593064E0,2.459577E0,-4.9083194E-1,6.776182E-1,1.7112111E0,1.5346101E-1,1.0523999E-2,-3.351466E-1,-1.0594773E0,2.1662607E0,4.1632342E-1,-2.118153E0,-4.470783E-1,-2.0677276E0,-3.2385057E-1,-1.2662494E-1,-2.665229E0,2.9593167E0,7.012601E-2,1.662685E0,-6.356446E-1,1.6971841E0,-5.3275996E-1,2.3597512E0,1.2026731E0,-5.032436E-1,3.2287905E-1,5.891518E-2,-1.1378782E0,1.2150823E-1,2.7126422E0,-9.12906E-1,8.7963325E-1,-2.3527768E-1,-1.6380668E0,-1.4708942E0,-1.5016936E-1,-5.0646156E-1,-2.8209755E0,1.4252863E0,-6.0326815E-1,-2.2024967E-1,1.6691175E-1,-3.467958E0,-2.5016236E0,9.3642935E-2,1.8668158E-1,5.3842437E-2,1.1279078E-1,-5.4809768E-2,8.958115E-3,1.2401712E-1,7.7368006E-2,-3.985397E-2,4.3436334E-2,7.408161E-2,1.817924E-1,2.0867498E-1,5.6248423E-2,9.001042E-3,-3.3274423E-2,4.350413E-2,9.369224E-3,-4.284605E-2,-7.2197974E-2,3.030366E-2,-5.2278745E-4,1.540224E-1,7.099333E-2,-1.7037729E-2,-8.3170734E-2,4.6182748E-2,-1.7904836E-1,1.06860004E-1,-9.429718E-2,-1.0212026E-1,5.1714475E-3,-4.3663945E-2,1.100593E-2,-1.3124903E-3,-3.1572577E-2,-2.9181838E-3,-1.5040044E-1,8.932357E-2,4.729339E-2,-2.0236008E-1,-2.2674343E-2,-1.5581776E-2,9.861648E-3,1.4629818E-2,-1.1194221E-2,-1.9611107E-1,-1.06201075E-1,-1.2741968E-1,-3.258645E-2],"categories":[],"categories_nodes":[],"categories_segments":[],"categories_sizes":[],"default_left":[0,0,0,0,0,0,0,0,0,0,0,0,0,0,0,0,0,0,0,0,0,0,0,0,0,0,0,0,0,0,0,0,0,0,0,0,0,0,0,0,0,0,0,0,0,0,0,0,0,1,0,0,0,0,0,0,0,1,1,0,0,0,0,0,0,0,0,0,0,0,0,0,0,0,0,0,0,0,0,0,0,0,0,0,0,0,0,0,0,0,0,0,0,0,0,0,0,0,0,0,0,0,0,0,0,0,0,0,0],"id":6,"left_children":[1,3,5,7,9,11,13,15,17,19,21,23,25,27,29,31,33,35,37,-1,-1,39,41,43,45,47,49,51,53,55,57,59,-1,61,63,65,67,69,71,73,75,-1,77,79,81,83,85,-1,87,89,91,93,95,97,99,101,103,105,107,-1,-1,-1,-1,-1,-1,-1,-1,-1,-1,-1,-1,-1,-1,-1,-1,-1,-1,-1,-1,-1,-1,-1,-1,-1,-1,-1,-1,-1,-1,-1,-1,-1,-1,-1,-1,-1,-1,-1,-1,-1,-1,-1,-1,-1,-1,-1,-1,-1,-1],"loss_changes":[9.386236E3,2.098666E3,4.9594604E3,1.2749629E3,2.3955766E2,2.0090103E3,4.0643848E2,1.5841075E2,9.637905E2,6.5555573E0,9.597632E1,5.399784E2,9.5103613E2,1.3091142E2,2.372793E2,5.8863144E0,1.3827379E2,1.6236935E3,9.5096387E2,0E0,0E0,4.4407356E1,6.099176E1,3.6499963E2,2.3790335E2,4.5686548E2,1.1628069E3,8.089273E1,5.6576134E1,1.1085718E0,1.6166113E2,3.1025696E0,0E0,7.300194E0,1.5517877E2,7.993994E1,2.2369743E2,1.417731E3,3.6996997E2,3.5482887E1,5.9166927E0,0E0,2.7055237E1,4.4824963E0,1.18302734E2,4.2373657E1,5.94675E1,0E0,3.0067944E2,7.7399023E2,7.946323E2,1.4239445E0,2.4109344E1,1.0807762E0,4.9232483E1,1.2060249E0,5.566783E-1,1.24147705E2,9.186621E1,0E0,0E0,0E0,0E0,0E0,0E0,0E0,0E0,0E0,0E0,0E0,0E0,0E0,0E0,0E0,0E0,0E0,0E0,0E0,0E0,0E0,0E0,0E0,0E0,0E0,0E0,0E0,0E0,0E0,0E0,0E0,0E0,0E0,0E0,0E0,0E0,0E0,0E0,0E0,0E0,0E0,0E0,0E0,0E0,0E0,0E0,0E0,0E0,0E0,0E0],"parents":[2147483647,0,0,1,1,2,2,3,3,4,4,5,5,6,6,7,7,8,8,9,9,10,10,11,11,12,12,13,13,14,14,15,15,16,16,17,17,18,18,21,21,22,22,23,23,24,24,25,25,26,26,27,27,28,28,29,29,30,30,31,31,33,33,34,34,35,35,36,36,37,37,38,38,39,39,40,40,42,42,43,43,44,44,45,45,46,46,48,48,49,49,50,50,51,51,52,52,53,53,54,54,55,55,56,56,57,57,58,58],"right_children":[2,4,6,8,10,12,14,16,18,20,22,24,26,28,30,32,34,36,38,-1,-1,40,42,44,46,48,50,52,54,56,58,60,-1,62,64,66,68,70,72,74,76,-1,78,80,82,84,86,-1,88,90,92,94,96,98,100,102,104,106,108,-1,-1,-1,-1,-1,-1,-1,-1,-1,-1,-1,-1,-1,-1,-1,-1,-1,-1,-1,-1,-1,-1,-1,-1,-1,-1,-1,-1,-1,-1,-1,-1,-1,-1,-1,-1,-1,-1,-1,-1,-1,-1,-1,-1,-1,-1,-1,-1,-1,-1],"split_conditions":[-1.6152728E-1,1.0495075E0,7.6616776E-1,1.6905056E0,-2.3668554E0,3.2848006E-1,1.3297953E-1,-5.1367154E0,-4.6163774E-1,-3.9991775E-1,1.0197381E0,-1.78298E-1,2.5609572E0,-9.64739E-2,-2.4832742E0,-1.78298E-1,-1.8783364E0,-8.39424E-1,-1.78298E-1,1.5346101E-1,1.0523999E-2,-3.9991775E-1,-8.3700156E-1,-2.7274457E-1,-5.187168E-1,-1.1565535E0,5.753928E-1,-1.3637884E-1,-7.591211E0,2.8081636E0,5.753928E-1,-5.5608433E-1,7.012601E-2,2.3975328E-1,-2.7274457E-1,2.5337174E0,-5.5608433E-1,-2.7274457E-1,1.8148558E0,1.6188965E0,-3.2239407E-1,5.891518E-2,-5.067466E-1,-3.8764007E0,9.551876E-1,3.349983E-1,2.9778695E0,-2.3527768E-1,1.9292006E-2,2.5794435E0,-4.6163774E-1,1.8933427E0,-6.155142E-1,-8.856322E0,-6.9839573E0,1.2384007E0,1.143954E0,2.5794435E0,3.2350802E0,9.3642935E-2,1.8668158E-1,5.3842437E-2,1.1279078E-1,-5.4809768E-2,8.958115E-3,1.2401712E-1,7.7368006E-2,-3.985397E-2,4.3436334E-2,7.408161E-2,1.817924E-1,2.0867498E-1,5.6248423E-2,9.001042E-3,-3.3274423E-2,4.350413E-2,9.369224E-3,-4.284605E-2,-7.2197974E-2,3.030366E-2,-5.2278745E-4,1.540224E-1,7.099333E-2,-1.7037729E-2,-8.3170734E-2,4.6182748E-2,-1.7904836E-1,1.06860004E-1,-9.429718E-2,-1.0212026E-1,5.1714475E-3,-4.3663945E-2,1.100593E-2,-1.3124903E-3,-3.1572577E-2,-2.9181838E-3,-1.5040044E-1,8.932357E-2,4.729339E-2,-2.0236008E-1,-2.2674343E-2,-1.5581776E-2,9.861648E-3,1.4629818E-2,-1.1194221E-2,-1.9611107E-1,-1.06201075E-1,-1.2741968E-1,-3.258645E-2],"split_indices":[2,16,16,5,6,7,2,10,16,2,13,16,5,2,10,16,16,16,16,0,0,2,2,16,11,10,1,2,15,4,1,16,0,5,16,4,16,16,5,4,2,0,2,11,2,2,2,0,2,2,16,4,13,15,15,16,16,2,4,0,0,0,0,0,0,0,0,0,0,0,0,0,0,0,0,0,0,0,0,0,0,0,0,0,0,0,0,0,0,0,0,0,0,0,0,0,0,0,0,0,0,0,0,0,0,0,0,0,0],"split_type":[0,0,0,0,0,0,0,0,0,0,0,0,0,0,0,0,0,0,0,0,0,0,0,0,0,0,0,0,0,0,0,0,0,0,0,0,0,0,0,0,0,0,0,0,0,0,0,0,0,0,0,0,0,0,0,0,0,0,0,0,0,0,0,0,0,0,0,0,0,0,0,0,0,0,0,0,0,0,0,0,0,0,0,0,0,0,0,0,0,0,0,0,0,0,0,0,0,0,0,0,0,0,0,0,0,0,0,0,0],"sum_hessian":[1.1842E4,5.418E3,6.424E3,4.662E3,7.56E2,4.908E3,1.516E3,4.57E2,4.205E3,1.8E1,7.38E2,7.1E2,4.198E3,1.82E2,1.334E3,1.8E1,4.39E2,1.314E3,2.891E3,1.7E1,1E0,3.99E2,3.39E2,3.26E2,3.84E2,3.73E2,3.825E3,6.9E1,1.13E2,3.8E1,1.296E3,1.1E1,7E0,2.7E1,4.12E2,7.13E2,6.01E2,1.269E3,1.622E3,3.18E2,8.1E1,1.1E1,3.28E2,6.9E1,2.57E2,9.9E1,2.85E2,5.7E1,3.16E2,8.59E2,2.966E3,2.3E1,4.6E1,1.5E1,9.8E1,2.9E1,9E0,2.16E2,1.08E3,6E0,5E0,1.5E1,1.2E1,2.63E2,1.49E2,1.12E2,6.01E2,5.06E2,9.5E1,7.53E2,5.16E2,4E1,1.582E3,6.1E1,2.57E2,1.5E1,6.6E1,1.73E2,1.55E2,1.4E1,5.5E1,1.99E2,5.8E1,5.7E1,4.2E1,2.83E2,2E0,1.9E1,2.97E2,6.3E2,2.29E2,1.004E3,1.962E3,5E0,1.8E1,3E0,4.3E1,7E0,8E0,3E0,9.5E1,2.4E1,5E0,7E0,2E0,1.6E2,5.6E1,1.053E3,2.7E1],"tree_param":{"num_deleted":"0","num_feature":"38","num_nodes":"109","size_leaf_vector":"1"}},{"base_weights":[-6.191082E-3,8.041262E-1,-8.859915E-1,1.050149E0,-6.5909225E-1,-4.1279486E-1,-2.3170023E0,-4.3401554E-1,1.2000457E0,-3.4262103E-1,-9.87843E-1,-1.3542633E0,-2.938458E-2,4.50766E-1,-2.3999808E0,-1.9834536E-1,-2.6593462E-1,2.5347042E0,1.050306E0,-8.7132674E-1,-2.1347272E-1,-5.8422077E-1,-1.6408175E0,2.4148965E-1,-2.8456724E0,-6.9829834E-1,6.5827835E-1,1.3969316E0,-1.8521795E-1,-3.3155847E0,-2.2242947E0,2.5859656E0,-3.999211E-1,3.6271276E0,1.4272928E0,-8.034431E-1,1.1677026E0,-5.489605E-1,-1.554019E0,-1.3068388E-1,-4.3427877E-2,-8.5691124E-1,1.0149954E-1,-1.7982373E0,-5.838928E-1,7.996673E-1,-5.627232E-1,-3.0411956E0,-9.399482E-1,1.5542793E-1,-1.4841752E0,-1.0673759E0,9.732456E-1,9.124865E-2,4.0683795E-2,-1.9477157E-1,4.6808955E-1,-3.7573714E0,-2.082227E0,-1.0546345E-1,-2.290414E0,1.52014E-1,8.21202E-2,7.734009E-2,-2.6967421E-2,1.2768176E-1,1.9825691E-1,1.20269336E-1,6.1951257E-2,1.17230356E-1,-1.14173494E-1,2.3916025E-2,7.67813E-2,-1.9091822E-2,-1.8542276E-1,-6.110748E-3,-8.2972854E-2,-2.7731254E-3,-2.8881563E-2,2.8176937E-4,-5.2340776E-2,1.3392751E-1,-3.5812907E-2,-7.34691E-2,-1.8272094E-1,-3.4176182E-2,3.0117095E-3,-7.970901E-2,4.8154872E-2,-5.1575262E-2,-4.6591866E-3,-3.1060984E-3,-1.582049E-1,-2.408219E-2,-6.4486496E-2,-9.475866E-2,3.101452E-2,-2.230589E-1,-6.507774E-2,-1.06837E-1,-3.771291E-2,7.947596E-2,2.2690404E-2,1.412218E-1,-1.7168215E-2,-1.9879666E-1,-1.5454006E-1,-1.0604849E-1,5.0899866E-3,-9.25637E-3,7.704907E-3,-1.2903619E-1,-1.0199596E-1],"categories":[],"categories_nodes":[],"categories_segments":[],"categories_sizes":[],"default_left":[0,0,0,0,0,0,0,0,0,0,0,0,0,0,0,0,0,0,0,0,1,0,0,1,0,0,0,0,0,1,0,0,0,0,0,0,0,0,0,0,0,0,0,0,1,0,0,0,0,1,0,0,0,0,0,0,0,1,0,0,0,0,0,0,0,0,0,0,0,0,0,0,0,0,0,0,0,0,0,0,0,0,0,0,0,0,0,0,0,0,0,0,0,0,0,0,0,0,0,0,0,0,0,0,0,0,0,0,0,0,0,0,0],"id":7,"left_children":[1,3,5,7,9,11,13,15,17,19,21,23,25,27,29,-1,31,33,35,37,39,41,43,45,47,49,51,53,55,57,59,61,63,65,67,69,71,73,75,77,-1,79,81,83,85,87,89,91,93,95,97,99,101,-1,-1,-1,103,105,107,109,111,-1,-1,-1,-1,-1,-1,-1,-1,-1,-1,-1,-1,-1,-1,-1,-1,-1,-1,-1,-1,-1,-1,-1,-1,-1,-1,-1,-1,-1,-1,-1,-1,-1,-1,-1,-1,-1,-1,-1,-1,-1,-1,-1,-1,-1,-1,-1,-1,-1,-1,-1,-1],"loss_changes":[8.46233E3,2.2250396E3,3.8527017E3,1.1773945E3,9.225726E1,1.5441841E3,3.2582812E2,2.8753754E2,9.5762354E2,3.0882053E1,1.1395145E2,2.9470283E3,1.3992806E3,2.5532076E1,2.1348438E2,0E0,1.7871812E2,5.8034814E2,9.415078E2,1.873375E1,1.9790264E1,5.0761124E1,2.6569214E1,2.6933728E2,2.3561426E2,1.0347952E3,8.16326E2,2.759243E0,6.4845085E1,1.1150513E2,1.6156885E2,4.008774E0,1.2161899E2,7.804761E1,4.1582336E1,1.2074271E3,1.0303115E3,3.1321688E1,4.0242615E0,1.0961702E1,0E0,3.1783325E1,1.6629594E2,8.253012E1,1.5171938E0,1.400297E2,5.4051353E1,2.1216211E2,9.157505E0,7.065787E2,4.307539E2,7.6070496E1,4.0550525E2,0E0,0E0,0E0,4.494734E1,1.1020996E1,5.292816E0,7.729251E-1,7.6183105E1,0E0,0E0,0E0,0E0,0E0,0E0,0E0,0E0,0E0,0E0,0E0,0E0,0E0,0E0,0E0,0E0,0E0,0E0,0E0,0E0,0E0,0E0,0E0,0E0,0E0,0E0,0E0,0E0,0E0,0E0,0E0,0E0,0E0,0E0,0E0,0E0,0E0,0E0,0E0,0E0,0E0,0E0,0E0,0E0,0E0,0E0,0E0,0E0,0E0,0E0,0E0,0E0],"parents":[2147483647,0,0,1,1,2,2,3,3,4,4,5,5,6,6,7,7,8,8,9,9,10,10,11,11,12,12,13,13,14,14,16,16,17,17,18,18,19,19,20,20,21,21,22,22,23,23,24,24,25,25,26,26,27,27,28,28,29,29,30,30,31,31,32,32,33,33,34,34,35,35,36,36,37,37,38,38,39,39,41,41,42,42,43,43,44,44,45,45,46,46,47,47,48,48,49,49,50,50,51,51,52,52,56,56,57,57,58,58,59,59,60,60],"right_children":[2,4,6,8,10,12,14,16,18,20,22,24,26,28,30,-1,32,34,36,38,40,42,44,46,48,50,52,54,56,58,60,62,64,66,68,70,72,74,76,78,-1,80,82,84,86,88,90,92,94,96,98,100,102,-1,-1,-1,104,106,108,110,112,-1,-1,-1,-1,-1,-1,-1,-1,-1,-1,-1,-1,-1,-1,-1,-1,-1,-1,-1,-1,-1,-1,-1,-1,-1,-1,-1,-1,-1,-1,-1,-1,-1,-1,-1,-1,-1,-1,-1,-1,-1,-1,-1,-1,-1,-1,-1,-1,-1,-1,-1,-1],"split_conditions":[3.758177E-2,1.0495075E0,7.6616776E-1,1.6905056E0,1.0197381E0,-4.6163774E-1,5.420883E-2,-5.187168E-1,3.2848006E-1,-6.4080226E-1,-3.3798194E-1,-6.505309E-1,1.0197381E0,-7.591211E0,5.753928E-1,-1.9834536E-1,-5.1367154E0,-1.78298E-1,-5.187168E-1,-6.9338536E-1,3.3570564E0,1.143954E0,-9.64739E-2,9.551876E-1,-5.5608433E-1,1.0504173E-1,5.753928E-1,-8.856322E0,-6.9839573E0,2.5794435E0,-2.4832742E0,-1.78298E-1,-1.8783364E0,-2.7274457E-1,-5.404164E-1,-3.0369797E0,-4.6163774E-1,1.143954E0,2.3355062E0,-1.8979327E-1,-4.3427877E-2,-7.07934E-1,1.8995267E0,-1.17673405E-1,2.7776697E0,2.8557131E0,2.2124012E0,-2.4832742E0,5.1643956E-1,5.420883E-2,2.3355062E0,-2.7274457E-1,-1.78298E-1,9.124865E-2,4.0683795E-2,-1.9477157E-1,-5.212801E0,1.7196168E0,1.7106335E0,2.8081636E0,1.143954E0,1.52014E-1,8.21202E-2,7.734009E-2,-2.6967421E-2,1.2768176E-1,1.9825691E-1,1.20269336E-1,6.1951257E-2,1.17230356E-1,-1.14173494E-1,2.3916025E-2,7.67813E-2,-1.9091822E-2,-1.8542276E-1,-6.110748E-3,-8.2972854E-2,-2.7731254E-3,-2.8881563E-2,2.8176937E-4,-5.2340776E-2,1.3392751E-1,-3.5812907E-2,-7.34691E-2,-1.8272094E-1,-3.4176182E-2,3.0117095E-3,-7.970901E-2,4.8154872E-2,-5.1575262E-2,-4.6591866E-3,-3.1060984E-3,-1.582049E-1,-2.408219E-2,-6.4486496E-2,-9.475866E-2,3.101452E-2,-2.230589E-1,-6.507774E-2,-1.06837E-1,-3.771291E-2,7.947596E-2,2.2690404E-2,1.412218E-1,-1.7168215E-2,-1.9879666E-1,-1.5454006E-1,-1.0604849E-1,5.0899866E-3,-9.25637E-3,7.704907E-3,-1.2903619E-1,-1.0199596E-1],"split_indices":[2,16,16,5,13,16,2,11,7,2,2,16,13,15,1,0,10,16,11,2,4,16,2,2,16,16,1,15,15,2,10,16,16,16,2,11,16,16,4,2,0,2,16,2,4,5,2,10,0,2,4,16,16,0,0,0,15,2,16,4,16,0,0,0,0,0,0,0,0,0,0,0,0,0,0,0,0,0,0,0,0,0,0,0,0,0,0,0,0,0,0,0,0,0,0,0,0,0,0,0,0,0,0,0,0,0,0,0,0,0,0,0,0],"split_type":[0,0,0,0,0,0,0,0,0,0,0,0,0,0,0,0,0,0,0,0,0,0,0,0,0,0,0,0,0,0,0,0,0,0,0,0,0,0,0,0,0,0,0,0,0,0,0,0,0,0,0,0,0,0,0,0,0,0,0,0,0,0,0,0,0,0,0,0,0,0,0,0,0,0,0,0,0,0,0,0,0,0,0,0,0,0,0,0,0,0,0,0,0,0,0,0,0,0,0,0,0,0,0,0,0,0,0,0,0,0,0,0,0],"sum_hessian":[1.1868E4,6.178E3,5.69E3,5.289E3,8.89E2,4.277E3,1.413E3,4.85E2,4.804E3,4.54E2,4.35E2,1.237E3,3.04E3,4.1E1,1.372E3,2.1E1,4.64E2,4.83E2,4.321E3,8.8E1,3.66E2,2.7E2,1.65E2,5.98E2,6.39E2,1.541E3,1.499E3,1.6E1,2.5E1,2.18E2,1.154E3,2E1,4.44E2,2.42E2,2.41E2,2.57E2,4.064E3,6.1E1,2.7E1,3.26E2,4E1,1.93E2,7.7E1,1.43E2,2.2E1,3.53E2,2.45E2,5.79E2,6E1,7.39E2,8.02E2,2.31E2,1.268E3,8E0,8E0,3E0,2.2E1,1.59E2,5.9E1,3.5E1,1.119E3,1.2E1,8E0,2.9E1,4.15E2,6E1,1.82E2,3.7E1,2.04E2,8.2E1,1.75E2,1.415E3,2.649E3,5.9E1,2E0,2E0,2.5E1,2.8E2,4.6E1,3.5E1,1.58E2,1.8E1,5.9E1,1.23E2,2E1,1.9E1,3E0,2.2E1,3.31E2,1.22E2,1.23E2,2.3E1,5.56E2,2.7E1,3.3E1,1.36E2,6.03E2,4.5E1,7.57E2,5.1E1,1.8E2,5.79E2,6.89E2,5E0,1.7E1,1.16E2,4.3E1,5.8E1,1E0,2.7E1,8E0,5.14E2,6.05E2],"tree_param":{"num_deleted":"0","num_feature":"38","num_nodes":"113","size_leaf_vector":"1"}},{"base_weights":[-1.0728877E-2,7.749888E-1,-8.5716856E-1,1.0050737E0,-6.309771E-1,-3.96871E-1,-2.2355444E0,-3.997774E-1,1.147707E0,2.3111668E0,-6.9577163E-1,1.0580882E0,-6.491619E-1,3.3582845E-1,-2.3074667E0,-2.5656554E-1,-1.8797944E-1,5.543524E-1,1.4274871E0,1.307032E-1,-1.7563789E-1,-3.3009207E-1,-1.0956807E0,-2.0059559E-1,1.5240972E0,-1.338172E0,-3.074785E-1,1.3022976E0,-2.961449E-1,-3.1600614E0,-2.1405048E0,-7.0380664E-1,5.4945725E-1,1.5481308E0,-6.6582155E-1,2.0571563E0,9.381078E-1,1.2097633E-2,-2.5270475E-2,-8.6338973E-1,-2.0611653E-1,-7.4888724E-1,-1.6209126E0,5.7189196E-1,-9.5324713E-1,2.4066458E0,7.94178E-1,2.7542946E-1,-2.7368839E0,-9.167637E-1,2.5945097E-1,8.142354E-2,4.33833E-2,-8.7318736E-1,1.0933311E-1,-2.0455859E0,-3.5850973E0,-2.2660556E0,-1.0792534E0,-6.262966E-2,2.2261102E-2,1.5430173E-1,-1.3050051E-2,9.80056E-2,6.1904367E-2,-4.6470013E-2,4.1330073E-2,6.404173E-2,1.5655127E-1,5.629923E-2,-1.4786943E-2,-2.7297053E-2,-7.953656E-2,1.2683052E-2,-1.4884825E-2,5.5690087E-2,-4.1609064E-2,-6.634496E-2,-1.05335854E-1,3.780761E-3,1.0060846E-1,-4.009316E-2,-1.9659215E-1,1.2428095E-1,-1.9355275E-1,5.413887E-2,2.0803814E-3,4.112203E-2,-2.382164E-2,-1.4614616E-1,-4.7558412E-2,-4.6445397E-4,-9.340915E-2,-2.2102638E-1,1.7264318E-2,6.439136E-3,-1.1117283E-1,-1.1204882E-1,-8.3315425E-2,-1.892805E-1,-1.504835E-1,-1.1537166E-1,-3.662819E-2,-9.9746816E-2,-1.4695388E-2],"categories":[],"categories_nodes":[],"categories_segments":[],"categories_sizes":[],"default_left":[0,0,0,0,0,0,0,0,0,0,0,0,0,0,0,0,0,0,0,0,0,0,0,0,0,0,0,0,0,0,1,0,0,0,0,0,0,0,0,0,0,0,0,0,0,0,0,1,0,0,0,0,0,0,0,0,0,0,0,0,0,0,0,0,0,0,0,0,0,0,0,0,0,0,0,0,0,0,0,0,0,0,0,0,0,0,0,0,0,0,0,0,0,0,0,0,0,0,0,0,0,0,0,0,0],"id":8,"left_children":[1,3,5,7,9,11,13,15,17,19,21,23,25,27,29,31,-1,33,35,-1,37,39,41,43,45,47,49,51,53,55,57,59,61,63,65,67,69,-1,-1,71,73,75,77,79,81,83,85,87,89,91,93,-1,-1,95,-1,97,99,101,103,-1,-1,-1,-1,-1,-1,-1,-1,-1,-1,-1,-1,-1,-1,-1,-1,-1,-1,-1,-1,-1,-1,-1,-1,-1,-1,-1,-1,-1,-1,-1,-1,-1,-1,-1,-1,-1,-1,-1,-1,-1,-1,-1,-1,-1,-1],"loss_changes":[7.936856E3,2.0027224E3,3.6441025E3,1.0662734E3,1.6765106E2,1.5820371E3,2.6671777E2,2.3528741E2,8.0086523E2,1.477079E1,1.2437982E2,3.739431E2,8.6406287E2,2.4816978E1,1.9238477E2,1.7053635E2,0E0,1.8793209E3,1.00910156E3,0E0,5.354137E-1,2.9375832E1,7.291995E1,1.0112977E2,2.9763672E2,2.7474783E3,8.485936E2,8.552723E-1,3.772649E1,1.00194336E2,1.5384619E2,1.9225143E2,3.4823395E2,1.0665637E2,2.7455438E2,1.1914692E3,4.2871997E2,0E0,0E0,1.8526611E1,1.5402252E1,3.924916E1,2.0200714E1,6.1318596E1,3.6527412E1,1.1373401E2,5.5555923E1,2.3317464E2,2.1382324E2,1.02223505E3,5.129002E2,0E0,0E0,2.8697859E1,0E0,1.0828247E0,7.4138184E0,6.480762E1,9.002373E1,0E0,0E0,0E0,0E0,0E0,0E0,0E0,0E0,0E0,0E0,0E0,0E0,0E0,0E0,0E0,0E0,0E0,0E0,0E0,0E0,0E0,0E0,0E0,0E0,0E0,0E0,0E0,0E0,0E0,0E0,0E0,0E0,0E0,0E0,0E0,0E0,0E0,0E0,0E0,0E0,0E0,0E0,0E0,0E0,0E0,0E0],"parents":[2147483647,0,0,1,1,2,2,3,3,4,4,5,5,6,6,7,7,8,8,9,9,10,10,11,11,12,12,13,13,14,14,15,15,17,17,18,18,20,20,21,21,22,22,23,23,24,24,25,25,26,26,27,27,28,28,29,29,30,30,31,31,32,32,33,33,34,34,35,35,36,36,39,39,40,40,41,41,42,42,43,43,44,44,45,45,46,46,47,47,48,48,49,49,50,50,53,53,55,55,56,56,57,57,58,58],"right_children":[2,4,6,8,10,12,14,16,18,20,22,24,26,28,30,32,-1,34,36,-1,38,40,42,44,46,48,50,52,54,56,58,60,62,64,66,68,70,-1,-1,72,74,76,78,80,82,84,86,88,90,92,94,-1,-1,96,-1,98,100,102,104,-1,-1,-1,-1,-1,-1,-1,-1,-1,-1,-1,-1,-1,-1,-1,-1,-1,-1,-1,-1,-1,-1,-1,-1,-1,-1,-1,-1,-1,-1,-1,-1,-1,-1,-1,-1,-1,-1,-1,-1,-1,-1,-1,-1,-1,-1],"split_conditions":[3.758177E-2,1.0495075E0,7.6616776E-1,1.6905056E0,-2.4622877E0,3.2848006E-1,5.420883E-2,2.0211193E-1,-4.6163774E-1,-3.9991775E-1,1.0197381E0,3.2932417E0,-4.6163774E-1,-7.591211E0,5.753928E-1,-2.7274457E-1,-1.8797944E-1,-7.449775E-1,1.0595152E-2,1.307032E-1,-2.4611744E-1,-6.4080226E-1,-3.3798194E-1,-1.78298E-1,-1.78298E-1,-6.505309E-1,2.0211193E-1,-8.856322E0,-3.5120423E0,5.7918483E-1,2.4727294E0,-6.155142E-1,-1.78298E-1,-1.8783364E0,-5.5608433E-1,-2.7274457E-1,-1.627743E-1,1.2097633E-2,-2.5270475E-2,-6.9338536E-1,1.4054383E0,-8.3700156E-1,-1.3637884E-1,-2.7274457E-1,7.046754E-1,2.9778695E0,7.0245636E-1,9.551876E-1,-5.5608433E-1,1.0504173E-1,-6.463436E0,8.142354E-2,4.33833E-2,-9.906002E0,1.0933311E-1,5.9307486E-1,1.7196168E0,1.4549321E1,7.046754E-1,-6.262966E-2,2.2261102E-2,1.5430173E-1,-1.3050051E-2,9.80056E-2,6.1904367E-2,-4.6470013E-2,4.1330073E-2,6.404173E-2,1.5655127E-1,5.629923E-2,-1.4786943E-2,-2.7297053E-2,-7.953656E-2,1.2683052E-2,-1.4884825E-2,5.5690087E-2,-4.1609064E-2,-6.634496E-2,-1.05335854E-1,3.780761E-3,1.0060846E-1,-4.009316E-2,-1.9659215E-1,1.2428095E-1,-1.9355275E-1,5.413887E-2,2.0803814E-3,4.112203E-2,-2.382164E-2,-1.4614616E-1,-4.7558412E-2,-4.6445397E-4,-9.340915E-2,-2.2102638E-1,1.7264318E-2,6.439136E-3,-1.1117283E-1,-1.1204882E-1,-8.3315425E-2,-1.892805E-1,-1.504835E-1,-1.1537166E-1,-3.662819E-2,-9.9746816E-2,-1.4695388E-2],"split_indices":[2,16,16,5,6,7,2,13,16,2,13,5,16,15,1,16,0,16,16,0,2,2,2,16,16,16,13,15,6,0,4,13,16,16,16,16,2,0,0,2,4,2,2,16,0,2,2,2,16,16,10,0,0,6,0,9,2,14,0,0,0,0,0,0,0,0,0,0,0,0,0,0,0,0,0,0,0,0,0,0,0,0,0,0,0,0,0,0,0,0,0,0,0,0,0,0,0,0,0,0,0,0,0,0,0],"split_type":[0,0,0,0,0,0,0,0,0,0,0,0,0,0,0,0,0,0,0,0,0,0,0,0,0,0,0,0,0,0,0,0,0,0,0,0,0,0,0,0,0,0,0,0,0,0,0,0,0,0,0,0,0,0,0,0,0,0,0,0,0,0,0,0,0,0,0,0,0,0,0,0,0,0,0,0,0,0,0,0,0,0,0,0,0,0,0,0,0,0,0,0,0,0,0,0,0,0,0,0,0,0,0,0,0],"sum_hessian":[1.1932E4,6.188E3,5.744E3,5.318E3,8.7E2,4.307E3,1.437E3,4.9E2,4.828E3,1.8E1,8.52E2,6.36E2,3.671E3,3.9E1,1.398E3,4.71E2,1.9E1,1.548E3,3.28E3,1.6E1,2E0,4.46E2,4.06E2,1.72E2,4.64E2,1.216E3,2.455E3,1.5E1,2.4E1,2.26E2,1.172E3,3.03E2,1.68E2,8.53E2,6.95E2,1.433E3,1.847E3,1E0,1E0,8.3E1,3.63E2,2.46E2,1.6E2,8.5E1,8.7E1,2.09E2,2.55E2,5.65E2,6.51E2,1.183E3,1.272E3,7E0,8E0,2E1,4E0,6.4E1,1.62E2,1.047E3,1.25E2,2.05E2,9.8E1,4E1,1.28E2,3.64E2,4.89E2,5.91E2,1.04E2,8.33E2,6E2,1.603E3,2.44E2,5.9E1,2.4E1,6E1,3.03E2,1E1,2.36E2,1.02E2,5.8E1,6.4E1,2.1E1,8.4E1,3E0,2.07E2,2E0,1.84E2,7.1E1,3.27E2,2.38E2,5.89E2,6.2E1,6.06E2,5.77E2,2.2E1,1.25E3,1.2E1,8E0,3.9E1,2.5E1,1.16E2,4.6E1,1.019E3,2.8E1,5.7E1,6.8E1],"tree_param":{"num_deleted":"0","num_feature":"38","num_nodes":"105","size_leaf_vector":"1"}},{"base_weights":[9.943553E-3,3.6604595E-1,-1.4680872E0,-1.2699336E0,5.368561E-1,-2.9429934E0,-1.3167818E0,-3.7103088E0,-1.1990004E0,-8.4401804E-1,6.8123186E-1,-3.1406786E0,-7.623457E-2,-1.1127423E0,-1.9062259E0,-1.3875124E0,-2.1853982E-1,-1.8387654E0,-8.835917E-1,-2.017395E0,-3.1502372E-1,7.13029E-3,9.469533E-1,-7.074209E-2,-1.5806198E-1,8.7136996E-1,-1.1945009E0,-2.11054E-1,-2.1526084E0,-1.9265434E0,-1.3311704E-3,-6.1705005E-1,-3.5542057E0,-1.8054909E0,-5.214297E-1,-1.9856083E-1,-1.6226631E0,2.4510865E0,-4.2102978E-1,1.2580017E0,-1.5129548E0,1.4008614E0,5.1203674E-1,3.1047015E-2,2.2005877E0,-2.1285734E-1,-1.2802664E0,-5.9475177E-3,-5.298882E-1,-2.7795074E0,-1.8812056E0,8.301414E-3,-1.2455966E-1,-1.7503986E-1,-2.721417E-2,-1.795002E-1,-8.092737E-2,3.242376E-3,-1.0846303E-1,-5.4823495E-2,-1.36341425E-2,-1.0693021E-2,-9.588084E-2,1.4324518E-1,7.9050414E-2,7.341927E-2,-2.7087519E-2,7.5127E-2,5.0221156E-2,-6.911582E-2,-1.23370245E-1,2.9765287E-2,1.2702979E-1,-4.7457337E-2,3.4003206E-2,4.187698E-2,-5.9031613E-2,1.1209939E-1,3.1209696E-2,-1.1925732E-1,-4.9331286E-3,-9.656829E-3,-6.6974595E-2,-6.9062896E-3,2.5436997E-2,-3.7778668E-2,-2.3509769E-2,-1.0166837E-1,-1.4963068E-1,2.7172154E-2,-1.06762886E-1],"categories":[],"categories_nodes":[],"categories_segments":[],"categories_sizes":[],"default_left":[0,0,0,0,0,0,0,0,0,0,0,0,0,0,0,0,0,0,0,0,0,0,0,0,0,0,0,0,0,0,0,0,1,0,0,0,0,0,0,0,0,0,0,0,0,0,0,0,0,0,0,0,0,0,0,0,0,0,0,0,0,0,0,0,0,0,0,0,0,0,0,0,0,0,0,0,0,0,0,0,0,0,0,0,0,0,0,0,0,0,0],"id":9,"left_children":[1,3,5,7,9,11,13,15,17,19,21,23,-1,25,27,29,-1,31,33,35,37,39,41,-1,-1,43,45,47,49,51,-1,53,55,57,59,-1,61,63,65,67,69,71,73,75,77,79,81,83,85,87,89,-1,-1,-1,-1,-1,-1,-1,-1,-1,-1,-1,-1,-1,-1,-1,-1,-1,-1,-1,-1,-1,-1,-1,-1,-1,-1,-1,-1,-1,-1,-1,-1,-1,-1,-1,-1,-1,-1,-1,-1],"loss_changes":[6.2296567E3,2.665999E3,5.0894922E2,1.5169067E2,1.722488E3,5.4931763E1,2.4876196E2,3.2289948E1,1.7554468E2,5.0710516E2,1.4007368E3,2.1276855E0,0E0,2.5280383E2,2.2299426E2,5.083639E0,0E0,6.034873E2,1.9604587E2,1.8944983E2,1.6670378E2,4.207869E3,1.1065674E3,0E0,0E0,6.918395E1,1.252561E2,4.509101E0,7.4227295E1,6.321459E0,0E0,3.3767494E1,2.5045166E0,1.1308252E2,6.0492783E1,0E0,8.8098145E1,3.0316696E0,1.2510529E2,7.377051E1,1.2115259E2,2.5178076E3,7.043023E2,3.9100025E1,1.6686249E-1,2.9780424E1,8.8014404E1,2.9955812E0,8.471489E-3,1.6016846E1,2.0382019E2,0E0,0E0,0E0,0E0,0E0,0E0,0E0,0E0,0E0,0E0,0E0,0E0,0E0,0E0,0E0,0E0,0E0,0E0,0E0,0E0,0E0,0E0,0E0,0E0,0E0,0E0,0E0,0E0,0E0,0E0,0E0,0E0,0E0,0E0,0E0,0E0,0E0,0E0,0E0,0E0],"parents":[2147483647,0,0,1,1,2,2,3,3,4,4,5,5,6,6,7,7,8,8,9,9,10,10,11,11,13,13,14,14,15,15,17,17,18,18,19,19,20,20,21,21,22,22,25,25,26,26,27,27,28,28,29,29,31,31,32,32,33,33,34,34,36,36,37,37,38,38,39,39,40,40,41,41,42,42,43,43,44,44,45,45,46,46,47,47,48,48,49,49,50,50],"right_children":[2,4,6,8,10,12,14,16,18,20,22,24,-1,26,28,30,-1,32,34,36,38,40,42,-1,-1,44,46,48,50,52,-1,54,56,58,60,-1,62,64,66,68,70,72,74,76,78,80,82,84,86,88,90,-1,-1,-1,-1,-1,-1,-1,-1,-1,-1,-1,-1,-1,-1,-1,-1,-1,-1,-1,-1,-1,-1,-1,-1,-1,-1,-1,-1,-1,-1,-1,-1,-1,-1,-1,-1,-1,-1,-1,-1],"split_conditions":[7.6616776E-1,5.753928E-1,5.753928E-1,1.7103786E0,1.6905056E0,5.9307486E-1,2.6964822E0,1.6188965E0,-5.5608433E-1,-5.187168E-1,-5.5608433E-1,5.588306E-1,-7.623457E-2,-1.719141E-1,3.280821E0,-2.7274457E-1,-2.1853982E-1,-7.449775E-1,-5.187168E-1,-1.1565535E0,-5.1367154E0,-7.449775E-1,-1.78298E-1,-7.074209E-2,-1.5806198E-1,-2.834391E0,1.8476018E0,2.9301398E0,1.143954E0,-1.8783364E0,-1.3311704E-3,5.588306E-1,7.310446E0,-1.78298E-1,-2.7274457E-1,-1.9856083E-1,5.9195495E-1,-1.78298E-1,-1.8783364E0,-1.8783364E0,2.6964822E0,-2.7274457E-1,-5.187168E-1,-5.212801E0,-9.35372E-1,5.8567905E0,1.0495075E0,-2.4832742E0,1.4968879E0,8.6061436E-1,1.4272938E0,8.301414E-3,-1.2455966E-1,-1.7503986E-1,-2.721417E-2,-1.795002E-1,-8.092737E-2,3.242376E-3,-1.0846303E-1,-5.4823495E-2,-1.36341425E-2,-1.0693021E-2,-9.588084E-2,1.4324518E-1,7.9050414E-2,7.341927E-2,-2.7087519E-2,7.5127E-2,5.0221156E-2,-6.911582E-2,-1.23370245E-1,2.9765287E-2,1.2702979E-1,-4.7457337E-2,3.4003206E-2,4.187698E-2,-5.9031613E-2,1.1209939E-1,3.1209696E-2,-1.1925732E-1,-4.9331286E-3,-9.656829E-3,-6.6974595E-2,-6.9062896E-3,2.5436997E-2,-3.7778668E-2,-2.3509769E-2,-1.0166837E-1,-1.4963068E-1,2.7172154E-2,-1.06762886E-1],"split_indices":[16,1,1,4,5,9,21,4,16,11,16,1,0,6,4,16,0,16,11,10,10,16,16,0,0,15,4,4,16,16,0,1,3,16,16,0,1,16,16,16,21,16,11,15,6,3,16,10,10,16,16,0,0,0,0,0,0,0,0,0,0,0,0,0,0,0,0,0,0,0,0,0,0,0,0,0,0,0,0,0,0,0,0,0,0,0,0,0,0,0,0],"split_type":[0,0,0,0,0,0,0,0,0,0,0,0,0,0,0,0,0,0,0,0,0,0,0,0,0,0,0,0,0,0,0,0,0,0,0,0,0,0,0,0,0,0,0,0,0,0,0,0,0,0,0,0,0,0,0,0,0,0,0,0,0,0,0,0,0,0,0,0,0,0,0,0,0,0,0,0,0,0,0,0,0,0,0,0,0,0,0,0,0,0,0],"sum_hessian":[1.1834E4,9.537E3,2.297E3,9.01E2,8.636E3,2.12E2,2.085E3,2.4E1,8.77E2,8.17E2,7.819E3,1.85E2,2.7E1,1.551E3,5.34E2,6E0,1.8E1,2.88E2,5.89E2,2.53E2,5.64E2,2.211E3,5.608E3,3E0,1.82E2,6.1E1,1.49E3,6.8E1,4.66E2,4E0,2E0,1.69E2,1.19E2,1.65E2,4.24E2,4.1E1,2.12E2,2E1,5.44E2,1.213E3,9.98E2,2.743E3,2.865E3,3.8E1,2.3E1,1.2E2,1.37E3,4.2E1,2.6E1,1.38E2,3.28E2,1E0,3E0,3E0,1.66E2,1.16E2,3E0,2.7E1,1.38E2,1.27E2,2.97E2,3.7E1,1.75E2,1.2E1,8E0,3.2E1,5.12E2,6.15E2,5.98E2,8.8E2,1.18E2,1.608E3,1.135E3,2.95E2,2.57E3,2.3E1,1.5E1,2.2E1,1E0,5E0,1.15E2,7.1E1,1.299E3,3.4E1,8E0,3E0,2.3E1,3.3E1,1.05E2,3.1E1,2.97E2],"tree_param":{"num_deleted":"0","num_feature":"38","num_nodes":"91","size_leaf_vector":"1"}},{"base_weights":[1.7764749E-2,8.404587E-1,-6.770514E-1,1.045349E0,-4.5186922E-1,-2.9495683E-1,-1.9231693E0,4.38467E-1,1.3377829E0,2.3580995E0,-5.091462E-1,1.0376571E0,-5.2047914E-1,-7.8408784E-1,-2.0743992E0,1.1240507E0,-4.4675007E-1,1.8032072E0,8.9059585E-1,1.250421E-1,8.992708E-3,-2.1702933E-1,-8.6472464E-1,-1.7347309E-1,1.4733473E0,-1.7933148E0,-3.9449105E-1,1.1942022E0,-9.6024793E-1,-1.7775728E0,-2.5056021E0,-2.8885E-1,1.43109E0,-6.5709674E-1,6.813571E-1,1.0428178E0,2.7077236E0,6.26649E-1,1.8363119E0,-4.1443712E-1,1.9767794E-1,5.537492E-2,-9.238391E-1,5.132063E-1,-8.440396E-1,2.253298E0,8.039426E-1,-2.067379E-1,-1.3297098E0,-9.720491E-1,-9.267948E-2,1.9726269E-2,6.434406E-2,-1.5218018E0,-5.4662853E-1,-1.911455E0,-3.0431348E-1,-2.1313639E0,-3.2718384E0,7.495736E-2,-3.4904037E-2,1.0805353E-1,6.373128E-2,1.6630247E-1,-3.5307538E-2,-3.1687297E-2,5.2897807E-2,-3.6442876E-2,6.254171E-2,-1.662199E-1,1.4040619E-1,-2.2024456E-1,3.764241E-2,1.0139358E-1,5.915862E-2,4.9504354E-3,-3.1069223E-2,4.8472453E-2,6.264247E-3,-3.4015354E-2,-6.038741E-2,9.996443E-4,9.754562E-2,-3.317075E-2,-1.9993632E-1,1.2200882E-1,-9.874058E-3,4.852756E-2,4.0679073E-4,1.0005098E-1,-7.743933E-2,2.2500314E-2,-1.1391684E-1,-7.530942E-2,4.9490654E-3,-1.3903064E-2,-1.1822019E-1,-1.8927948E-1,-2.0072034E-2,-1.16027415E-1,-8.300706E-2,-4.5517497E-3,-2.67371E-2,-1.3640277E-1,-8.364669E-2,-1.7058848E-1,-1.3481964E-1],"categories":[],"categories_nodes":[],"categories_segments":[],"categories_sizes":[],"default_left":[0,0,0,0,0,0,0,0,0,0,0,0,0,0,1,0,0,0,0,0,0,0,0,0,0,0,0,0,0,1,0,0,0,0,0,0,0,0,0,0,0,0,0,0,0,0,0,0,0,0,0,0,0,0,0,0,0,0,0,0,0,0,0,0,0,0,0,0,0,0,0,0,0,0,0,0,0,0,0,0,0,0,0,0,0,0,0,0,0,0,0,0,0,0,0,0,0,0,0,0,0,0,0,0,0,0,0],"id":10,"left_children":[1,3,5,7,9,11,13,15,17,19,21,23,25,27,29,31,33,35,37,-1,-1,39,41,43,45,47,49,51,53,55,57,59,61,63,65,67,69,71,73,75,77,-1,79,81,83,85,87,-1,89,91,93,-1,-1,95,97,99,101,103,105,-1,-1,-1,-1,-1,-1,-1,-1,-1,-1,-1,-1,-1,-1,-1,-1,-1,-1,-1,-1,-1,-1,-1,-1,-1,-1,-1,-1,-1,-1,-1,-1,-1,-1,-1,-1,-1,-1,-1,-1,-1,-1,-1,-1,-1,-1,-1,-1],"loss_changes":[6.7628457E3,1.434815E3,3.0533616E3,8.2927637E2,1.20622986E2,1.4761626E3,2.576294E2,9.2418945E2,6.550493E2,4.2141266E0,7.543004E1,3.7543433E2,6.728135E2,6.3178986E1,1.6552002E2,3.7262756E2,1.5824797E2,1.0598037E3,4.0098523E2,0E0,0E0,3.291037E1,3.9263657E1,8.746091E1,2.7124817E2,4.0482263E2,6.6631116E2,6.0399246E-1,3.7260345E1,1.5524048E2,1.475874E2,1.1372885E2,7.776758E1,1.1196188E2,5.2673447E1,3.1085162E2,4.3630225E2,8.040208E2,4.1516113E1,2.8963219E1,7.1417503E0,0E0,2.1234314E1,6.661601E1,5.2049362E1,1.1085925E2,3.7514557E1,0E0,2.3440948E2,2.438214E3,6.8068555E2,0E0,0E0,7.1653015E1,4.362507E1,7.058252E1,3.2440648E0,9.527869E1,4.891968E0,0E0,0E0,0E0,0E0,0E0,0E0,0E0,0E0,0E0,0E0,0E0,0E0,0E0,0E0,0E0,0E0,0E0,0E0,0E0,0E0,0E0,0E0,0E0,0E0,0E0,0E0,0E0,0E0,0E0,0E0,0E0,0E0,0E0,0E0,0E0,0E0,0E0,0E0,0E0,0E0,0E0,0E0,0E0,0E0,0E0,0E0,0E0,0E0],"parents":[2147483647,0,0,1,1,2,2,3,3,4,4,5,5,6,6,7,7,8,8,9,9,10,10,11,11,12,12,13,13,14,14,15,15,16,16,17,17,18,18,21,21,22,22,23,23,24,24,25,25,26,26,27,27,28,28,29,29,30,30,31,31,32,32,33,33,34,34,35,35,36,36,37,37,38,38,39,39,40,40,42,42,43,43,44,44,45,45,46,46,48,48,49,49,50,50,53,53,54,54,55,55,56,56,57,57,58,58],"right_children":[2,4,6,8,10,12,14,16,18,20,22,24,26,28,30,32,34,36,38,-1,-1,40,42,44,46,48,50,52,54,56,58,60,62,64,66,68,70,72,74,76,78,-1,80,82,84,86,88,-1,90,92,94,-1,-1,96,98,100,102,104,106,-1,-1,-1,-1,-1,-1,-1,-1,-1,-1,-1,-1,-1,-1,-1,-1,-1,-1,-1,-1,-1,-1,-1,-1,-1,-1,-1,-1,-1,-1,-1,-1,-1,-1,-1,-1,-1,-1,-1,-1,-1,-1,-1,-1,-1,-1,-1,-1],"split_conditions":[-1.627743E-1,1.0495075E0,7.6616776E-1,-4.6163774E-1,-2.3668554E0,3.2848006E-1,1.3297953E-1,-1.311657E0,3.8838145E-1,-3.9991775E-1,1.0197381E0,-5.187168E-1,2.5609572E0,-7.591211E0,5.7918483E-1,1.6905056E0,-5.5608433E-1,-2.7274457E-1,6.7172116E-1,1.250421E-1,8.992708E-3,-4.6310058E-1,-8.3700156E-1,-1.78298E-1,-1.78298E-1,-1.1565535E0,-4.6163774E-1,-1.1242053E1,-9.64739E-2,2.2745183E0,5.521893E-1,-1.8783364E0,2.5337174E0,-1.5186751E0,-6.155142E-1,1.6905056E0,-3.3771071E0,2.3202593E0,-3.2239407E-1,2.2287772E0,-3.809995E0,5.537492E-2,-5.067466E-1,-2.7274457E-1,7.046754E-1,1.8004658E0,9.551876E-1,-2.067379E-1,1.9292006E-2,-6.505309E-1,-5.187168E-1,1.9726269E-2,6.434406E-2,-1.3637884E-1,-6.9839573E0,1.143954E0,-2.4832742E0,3.067323E-1,1.7196168E0,7.495736E-2,-3.4904037E-2,1.0805353E-1,6.373128E-2,1.6630247E-1,-3.5307538E-2,-3.1687297E-2,5.2897807E-2,-3.6442876E-2,6.254171E-2,-1.662199E-1,1.4040619E-1,-2.2024456E-1,3.764241E-2,1.0139358E-1,5.915862E-2,4.9504354E-3,-3.1069223E-2,4.8472453E-2,6.264247E-3,-3.4015354E-2,-6.038741E-2,9.996443E-4,9.754562E-2,-3.317075E-2,-1.9993632E-1,1.2200882E-1,-9.874058E-3,4.852756E-2,4.0679073E-4,1.0005098E-1,-7.743933E-2,2.2500314E-2,-1.1391684E-1,-7.530942E-2,4.9490654E-3,-1.3903064E-2,-1.1822019E-1,-1.8927948E-1,-2.0072034E-2,-1.16027415E-1,-8.300706E-2,-4.5517497E-3,-2.67371E-2,-1.3640277E-1,-8.364669E-2,-1.7058848E-1,-1.3481964E-1],"split_indices":[2,16,16,16,6,7,2,16,16,2,13,11,5,15,0,5,16,16,16,0,0,2,2,16,16,10,16,6,2,4,2,16,4,15,13,5,12,4,2,4,10,0,2,16,0,2,2,0,2,16,11,0,0,2,15,16,10,2,2,0,0,0,0,0,0,0,0,0,0,0,0,0,0,0,0,0,0,0,0,0,0,0,0,0,0,0,0,0,0,0,0,0,0,0,0,0,0,0,0,0,0,0,0,0,0,0,0],"split_type":[0,0,0,0,0,0,0,0,0,0,0,0,0,0,0,0,0,0,0,0,0,0,0,0,0,0,0,0,0,0,0,0,0,0,0,0,0,0,0,0,0,0,0,0,0,0,0,0,0,0,0,0,0,0,0,0,0,0,0,0,0,0,0,0,0,0,0,0,0,0,0,0,0,0,0,0,0,0,0,0,0,0,0,0,0,0,0,0,0,0,0,0,0,0,0,0,0,0,0,0,0,0,0,0,0,0,0],"sum_hessian":[1.1829E4,5.416E3,6.413E3,4.675E3,7.41E2,4.909E3,1.504E3,1.521E3,3.154E3,1.4E1,7.27E2,7.1E2,4.199E3,1.77E2,1.327E3,8.57E2,6.64E2,1.544E3,1.61E3,1.3E1,1E0,4E2,3.27E2,1.88E2,5.22E2,3.77E2,3.822E3,1.4E1,1.63E2,7.89E2,5.38E2,1.53E2,7.04E2,5.6E2,1.04E2,8.4E2,7.04E2,1.26E3,3.5E2,2.71E2,1.29E2,9E0,3.18E2,9.3E1,9.5E1,2.4E2,2.82E2,6.1E1,3.16E2,1.311E3,2.511E3,2E0,1.2E1,6.8E1,9.5E1,7.23E2,6.6E1,3.64E2,1.74E2,2.8E1,1.25E2,1.22E2,5.82E2,6E0,5.54E2,2.3E1,8.1E1,8.8E1,7.52E2,1.1E1,6.93E2,3E1,1.23E3,2.69E2,8.1E1,7.8E1,1.93E2,1E1,1.19E2,1.73E2,1.45E2,7E1,2.3E1,9.1E1,4E0,2.23E2,1.7E1,2.33E2,4.9E1,1.9E1,2.97E2,6.28E2,6.83E2,2.99E2,2.212E3,2.8E1,4E1,3E0,9.2E1,2.72E2,4.51E2,3.5E1,3.1E1,1.56E2,2.08E2,1.36E2,3.8E1],"tree_param":{"num_deleted":"0","num_feature":"38","num_nodes":"107","size_leaf_vector":"1"}},{"base_weights":[-1.0583511E-2,7.797213E-1,-6.777863E-1,9.7556275E-1,-4.4861433E-1,-3.0786973E-1,-1.8752337E0,-3.3520144E-1,1.1173129E0,2.0362623E0,-5.1285064E-1,9.392613E-1,-5.1634383E-1,-6.45893E-1,-2.0363376E0,-2.376855E0,-2.0147702E-1,2.8562427E0,1.0300667E0,1.0790612E0,1.1975213E-1,-2.2725251E-1,-8.5470927E-1,-2.2459374E-1,1.3584135E0,3.811336E-1,-6.908483E-1,6.380757E-1,-1.0376635E0,-1.7857013E0,-2.3882577E0,-3.3752763E0,1.4454699E-1,-2.740402E-1,1.4367902E-1,3.0113919E0,8.741174E-1,2.2416518E0,8.959054E-1,8.245749E-2,-2.3077361E-1,-3.6745396E-1,3.526439E-1,1.0139421E-1,-9.9023217E-1,4.8360658E-1,-8.8667244E-1,2.1165679E0,6.9388777E-1,8.5442996E-1,-4.7235554E-1,-2.4031572E0,-2.8225306E-1,-1.8247894E0,1.0992419E0,-1.6064266E0,-5.5365044E-1,-1.9093647E0,-3.6078987E-1,-2.0306942E0,-3.0847774E0,7.1736656E-2,-1.9388826E-1,1.1439398E-2,-4.024827E-2,1.8073077E-1,1.2505089E-1,6.8369225E-2,2.228805E-3,1.5549834E-1,6.700441E-2,9.952831E-2,3.9548542E-2,-2.6075913E-2,8.767891E-3,1.1030395E-2,-2.4493754E-2,2.0474777E-2,-2.7964447E-2,5.7279475E-2,-1.0905058E-2,-6.8204E-2,-4.2312503E-2,9.14975E-4,9.292507E-2,-1.5362895E-2,-8.523284E-2,1.2281505E-1,4.0136624E-2,3.682446E-2,-1.7212717E-1,-6.591304E-2,4.8038848E-2,-4.192218E-2,-3.9464803E-4,-1.0445622E-1,-1.5964608E-1,-8.875046E-2,7.1312905E-5,1.9068725E-2,-1.391765E-1,9.460801E-2,1.0060178E-2,-4.133165E-2,-1.5447588E-1,2.4527764E-2,-3.096941E-2,-1.8270932E-1,-9.259819E-2,-7.906327E-3,-3.2545414E-2,-1.3261776E-1,-8.058968E-2,-1.650678E-1,-1.315409E-1],"categories":[],"categories_nodes":[],"categories_segments":[],"categories_sizes":[],"default_left":[0,0,0,0,0,0,0,0,0,0,0,0,0,0,1,0,0,0,0,0,0,0,0,0,0,1,0,0,0,1,0,0,0,0,0,0,0,0,0,0,0,0,0,0,0,0,0,0,0,0,0,1,0,0,0,0,0,0,0,0,0,0,0,0,0,0,0,0,0,0,0,0,0,0,0,0,0,0,0,0,0,0,0,0,0,0,0,0,0,0,0,0,0,0,0,0,0,0,0,0,0,0,0,0,0,0,0,0,0,0,0,0,0,0,0],"id":11,"left_children":[1,3,5,7,9,11,13,15,17,19,21,23,25,27,29,31,33,35,37,39,-1,41,43,45,47,49,51,53,55,57,59,61,-1,63,-1,65,67,69,71,-1,73,75,77,79,81,83,85,87,89,91,93,95,97,99,101,103,105,107,109,111,113,-1,-1,-1,-1,-1,-1,-1,-1,-1,-1,-1,-1,-1,-1,-1,-1,-1,-1,-1,-1,-1,-1,-1,-1,-1,-1,-1,-1,-1,-1,-1,-1,-1,-1,-1,-1,-1,-1,-1,-1,-1,-1,-1,-1,-1,-1,-1,-1,-1,-1,-1,-1,-1,-1],"loss_changes":[6.243157E3,1.3042681E3,2.843198E3,8.6899414E2,1.201203E2,1.2760183E3,2.987329E2,1.24290764E2,6.3714307E2,3.9406815E0,7.088345E1,3.4325122E2,6.5866785E2,8.969684E1,1.1384033E2,1.5702313E2,9.673592E1,5.918042E1,6.512715E2,5.6076336E0,0E0,3.2487904E1,4.2989365E1,8.8110176E1,2.590027E2,2.7711157E2,2.4620593E3,4.970907E1,3.654988E1,1.3781177E2,1.3170923E2,6.3570984E1,0E0,1.12576065E2,0E0,4.8223633E1,6.4860134E0,3.0896875E2,4.1424683E2,0E0,4.456939E-1,2.3217236E1,4.2729254E0,1.4261708E1,1.4455597E1,5.818309E1,4.5449585E1,1.05599365E2,5.1347794E1,1.03163635E2,4.165176E1,1.6148193E2,1.2039108E3,1.5867542E1,2.5253845E1,6.9149414E1,5.45212E0,6.564429E1,3.6600418E0,9.181787E1,9.601929E0,0E0,0E0,0E0,0E0,0E0,0E0,0E0,0E0,0E0,0E0,0E0,0E0,0E0,0E0,0E0,0E0,0E0,0E0,0E0,0E0,0E0,0E0,0E0,0E0,0E0,0E0,0E0,0E0,0E0,0E0,0E0,0E0,0E0,0E0,0E0,0E0,0E0,0E0,0E0,0E0,0E0,0E0,0E0,0E0,0E0,0E0,0E0,0E0,0E0,0E0,0E0,0E0,0E0,0E0],"parents":[2147483647,0,0,1,1,2,2,3,3,4,4,5,5,6,6,7,7,8,8,9,9,10,10,11,11,12,12,13,13,14,14,15,15,16,16,17,17,18,18,19,19,21,21,22,22,23,23,24,24,25,25,26,26,27,27,28,28,29,29,30,30,31,31,33,33,35,35,36,36,37,37,38,38,40,40,41,41,42,42,43,43,44,44,45,45,46,46,47,47,48,48,49,49,50,50,51,51,52,52,53,53,54,54,55,55,56,56,57,57,58,58,59,59,60,60],"right_children":[2,4,6,8,10,12,14,16,18,20,22,24,26,28,30,32,34,36,38,40,-1,42,44,46,48,50,52,54,56,58,60,62,-1,64,-1,66,68,70,72,-1,74,76,78,80,82,84,86,88,90,92,94,96,98,100,102,104,106,108,110,112,114,-1,-1,-1,-1,-1,-1,-1,-1,-1,-1,-1,-1,-1,-1,-1,-1,-1,-1,-1,-1,-1,-1,-1,-1,-1,-1,-1,-1,-1,-1,-1,-1,-1,-1,-1,-1,-1,-1,-1,-1,-1,-1,-1,-1,-1,-1,-1,-1,-1,-1,-1,-1,-1,-1],"split_conditions":[-1.6152728E-1,1.0495075E0,7.6616776E-1,1.6905056E0,-2.3668554E0,3.2848006E-1,1.3297953E-1,-7.55529E-1,1.8885449E0,-8.188222E0,1.0197381E0,-5.187168E-1,-7.449775E-1,1.0066772E-1,5.7918483E-1,-2.7274457E-1,6.7172116E-1,-4.7723356E-1,3.2848006E-1,-1.0287731E1,1.1975213E-1,-3.9991775E-1,-7.07934E-1,-1.78298E-1,-1.78298E-1,7.5774133E-1,-5.5608433E-1,-1.0955756E1,-9.64739E-2,2.2287772E0,5.521893E-1,-1.8783364E0,1.4454699E-1,1.6582667E0,1.4367902E-1,-6.155142E-1,-2.779167E-1,-1.78298E-1,-7.4970955E-1,8.245749E-2,-5.2669907E-1,1.4054383E0,-1.8979327E-1,-8.3700156E-1,-5.979876E-1,-2.7274457E-1,3.349983E-1,9.551876E-1,2.9778695E0,2.8557131E0,2.2124012E0,7.5774133E-1,-5.187168E-1,-1.1242053E1,-5.212801E0,-1.17673405E-1,-7.2364666E-2,-8.198464E0,2.9301398E0,3.067323E-1,1.143954E0,7.1736656E-2,-1.9388826E-1,1.1439398E-2,-4.024827E-2,1.8073077E-1,1.2505089E-1,6.8369225E-2,2.228805E-3,1.5549834E-1,6.700441E-2,9.952831E-2,3.9548542E-2,-2.6075913E-2,8.767891E-3,1.1030395E-2,-2.4493754E-2,2.0474777E-2,-2.7964447E-2,5.7279475E-2,-1.0905058E-2,-6.8204E-2,-4.2312503E-2,9.14975E-4,9.292507E-2,-1.5362895E-2,-8.523284E-2,1.2281505E-1,4.0136624E-2,3.682446E-2,-1.7212717E-1,-6.591304E-2,4.8038848E-2,-4.192218E-2,-3.9464803E-4,-1.0445622E-1,-1.5964608E-1,-8.875046E-2,7.1312905E-5,1.9068725E-2,-1.391765E-1,9.460801E-2,1.0060178E-2,-4.133165E-2,-1.5447588E-1,2.4527764E-2,-3.096941E-2,-1.8270932E-1,-9.259819E-2,-7.906327E-3,-3.2545414E-2,-1.3261776E-1,-8.058968E-2,-1.650678E-1,-1.315409E-1],"split_indices":[2,16,16,5,6,7,2,2,5,6,13,11,16,15,0,16,16,2,7,6,0,2,2,16,16,2,16,6,2,4,2,16,0,5,0,13,2,16,2,0,2,4,2,2,2,16,2,2,2,5,2,2,11,6,15,2,2,15,4,2,16,0,0,0,0,0,0,0,0,0,0,0,0,0,0,0,0,0,0,0,0,0,0,0,0,0,0,0,0,0,0,0,0,0,0,0,0,0,0,0,0,0,0,0,0,0,0,0,0,0,0,0,0,0,0],"split_type":[0,0,0,0,0,0,0,0,0,0,0,0,0,0,0,0,0,0,0,0,0,0,0,0,0,0,0,0,0,0,0,0,0,0,0,0,0,0,0,0,0,0,0,0,0,0,0,0,0,0,0,0,0,0,0,0,0,0,0,0,0,0,0,0,0,0,0,0,0,0,0,0,0,0,0,0,0,0,0,0,0,0,0,0,0,0,0,0,0,0,0,0,0,0,0,0,0,0,0,0,0,0,0,0,0,0,0,0,0,0,0,0,0,0,0],"sum_hessian":[1.1838E4,5.419E3,6.419E3,4.674E3,7.45E2,4.905E3,1.514E3,4.56E2,4.218E3,1.8E1,7.27E2,7.02E2,4.203E3,1.76E2,1.338E3,2.7E1,4.29E2,2E2,4.018E3,6E0,1.2E1,3.97E2,3.3E2,1.86E2,5.16E2,6.84E2,3.519E3,4.1E1,1.35E2,7.85E2,5.53E2,2.3E1,4E0,4.2E2,9E0,1.85E2,1.5E1,3.99E2,3.619E3,4E0,2E0,3.2E2,7.7E1,4.1E1,2.89E2,9E1,9.6E1,2.4E2,2.76E2,4.4E2,2.44E2,6.77E2,2.842E3,6E0,3.5E1,6.1E1,7.4E1,7.22E2,6.3E1,3.68E2,1.85E2,2E0,2.1E1,2.16E2,2.04E2,8.2E1,1.03E2,9E0,6E0,2.02E2,1.97E2,3.15E2,3.304E3,1E0,1E0,5.5E1,2.65E2,7.3E1,4E0,9E0,3.2E1,7.8E1,2.11E2,6.8E1,2.2E1,5.7E1,3.9E1,1.9E2,5E1,2.74E2,2E0,2E1,4.2E2,1.36E2,1.08E2,4.87E2,1.9E2,4.53E2,2.389E3,2E0,4E0,1.8E1,1.7E1,4.1E1,2E1,4E0,7E1,2.1E1,7.01E2,3.8E1,2.5E1,1.46E2,2.22E2,1.21E2,6.4E1],"tree_param":{"num_deleted":"0","num_feature":"38","num_nodes":"115","size_leaf_vector":"1"}},{"base_weights":[-6.067517E-4,6.57167E-1,-7.170627E-1,8.454912E-1,-4.7266918E-1,-3.4756792E-1,-1.8461341E0,-3.599508E-1,9.6463716E-1,1.9877783E0,-5.318562E-1,8.1384385E-1,-5.4659927E-1,3.8125628E-1,-1.9135637E0,-1.5597303E-1,-2.3263715E-1,2.7202835E0,8.89777E-1,2.1422725E0,-2.755258E-2,-2.3051336E-1,-8.5654944E-1,8.895914E-1,-2.2431652E-1,-1.039112E0,-1.6681866E-1,1.0303788E0,-3.8429746E-1,-1.6687051E0,-2.2700462E0,-6.5837264E-1,5.568151E-1,1.1971252E0,2.8667624E0,2.029663E0,7.5539345E-1,5.9068866E-2,1.15433E-1,-6.5148985E-1,-1.2782343E-1,-4.865088E-1,-1.1654929E0,-6.24594E-2,1.2770449E0,-9.805905E-1,-2.4108267E-1,-8.2664037E-1,2.4823613E-1,-1.2559935E0,1.7352598E0,-1.15000986E-1,8.241699E-1,-6.7601746E-1,-1.8204633E0,-1.9236605E0,-2.94493E0,-1.7029099E-1,-2.1889353E-2,1.3975334E-1,-1.1560655E-2,9.341375E-2,-2.8420592E-2,1.5946786E-1,9.729045E-2,1.4458863E-1,5.849082E-2,-5.4324653E-2,4.344222E-2,1.591324E-2,-4.2755716E-2,3.0268813E-2,-8.058323E-3,-3.7983976E-2,1.8330162E-2,-6.27683E-2,-1.5884217E-2,2.3996802E-2,-2.9910404E-2,1.0042866E-1,3.40596E-2,-1.0145159E-1,-3.8539696E-2,2.4605192E-2,-9.7819224E-2,-1.8719023E-1,1.5920488E-2,1.8433101E-2,-1.0802434E-1,1.563454E-1,6.242348E-2,3.0316063E-3,1.0168519E-1,-7.373174E-2,-1.2256796E-2,-1.5489866E-3,-9.405168E-2,-1.02133594E-1,-1.7467206E-2,-1.5646043E-1,-1.2738176E-1],"categories":[],"categories_nodes":[],"categories_segments":[],"categories_sizes":[],"default_left":[0,0,0,0,0,0,0,0,0,0,0,0,0,0,1,0,0,0,0,0,0,0,0,0,0,1,0,0,0,0,0,0,0,0,0,0,0,0,0,0,0,0,0,0,0,0,0,0,0,0,0,0,0,0,0,0,0,0,0,0,0,0,0,0,0,0,0,0,0,0,0,0,0,0,0,0,0,0,0,0,0,0,0,0,0,0,0,0,0,0,0,0,0,0,0,0,0,0,0,0,0],"id":12,"left_children":[1,3,5,7,9,11,13,15,17,19,21,23,25,27,29,-1,31,33,35,37,-1,39,41,43,-1,45,47,49,51,53,55,57,59,61,63,65,67,-1,-1,69,71,73,75,77,79,81,-1,83,85,87,89,-1,91,93,95,97,99,-1,-1,-1,-1,-1,-1,-1,-1,-1,-1,-1,-1,-1,-1,-1,-1,-1,-1,-1,-1,-1,-1,-1,-1,-1,-1,-1,-1,-1,-1,-1,-1,-1,-1,-1,-1,-1,-1,-1,-1,-1,-1,-1,-1],"loss_changes":[5.5953403E3,1.31748E3,2.3702263E3,7.624133E2,1.299366E2,9.904917E2,2.1114844E2,1.6720682E2,6.322446E2,9.417419E0,8.443758E1,2.5571594E2,6.838567E2,2.1267378E1,1.1492383E2,0E0,1.542994E2,4.0520752E1,7.0815845E2,4.7022247E-1,0E0,1.9370247E1,4.6990784E1,2.2841364E2,0E0,3.4767664E2,5.6600446E2,3.9246735E1,4.8197365E1,1.2079468E2,1.2314209E2,1.7911104E2,2.8461893E2,2.3575802E1,4.6974243E1,3.583628E2,8.673074E2,0E0,0E0,1.7649143E1,8.971861E0,4.4790142E1,1.682129E1,5.2592876E1,1.9042047E2,3.4355225E2,0E0,1.1898579E3,3.566845E2,9.61343E0,8.290085E0,0E0,1.1882515E1,3.714645E1,7.603076E1,6.8048096E1,5.5723877E0,0E0,0E0,0E0,0E0,0E0,0E0,0E0,0E0,0E0,0E0,0E0,0E0,0E0,0E0,0E0,0E0,0E0,0E0,0E0,0E0,0E0,0E0,0E0,0E0,0E0,0E0,0E0,0E0,0E0,0E0,0E0,0E0,0E0,0E0,0E0,0E0,0E0,0E0,0E0,0E0,0E0,0E0,0E0,0E0],"parents":[2147483647,0,0,1,1,2,2,3,3,4,4,5,5,6,6,7,7,8,8,9,9,10,10,11,11,12,12,13,13,14,14,16,16,17,17,18,18,19,19,21,21,22,22,23,23,25,25,26,26,27,27,28,28,29,29,30,30,31,31,32,32,33,33,34,34,35,35,36,36,39,39,40,40,41,41,42,42,43,43,44,44,45,45,47,47,48,48,49,49,50,50,52,52,53,53,54,54,55,55,56,56],"right_children":[2,4,6,8,10,12,14,16,18,20,22,24,26,28,30,-1,32,34,36,38,-1,40,42,44,-1,46,48,50,52,54,56,58,60,62,64,66,68,-1,-1,70,72,74,76,78,80,82,-1,84,86,88,90,-1,92,94,96,98,100,-1,-1,-1,-1,-1,-1,-1,-1,-1,-1,-1,-1,-1,-1,-1,-1,-1,-1,-1,-1,-1,-1,-1,-1,-1,-1,-1,-1,-1,-1,-1,-1,-1,-1,-1,-1,-1,-1,-1,-1,-1,-1,-1,-1],"split_conditions":[3.758177E-2,1.0495075E0,7.6616776E-1,1.6905056E0,-2.3668554E0,3.2848006E-1,5.420883E-2,-5.187168E-1,1.8885449E0,-3.9991775E-1,1.0197381E0,2.9778695E0,2.0211193E-1,-5.212801E0,5.7918483E-1,-1.5597303E-1,-2.7274457E-1,-5.5608433E-1,3.2848006E-1,-1.0383163E1,-2.755258E-2,-6.4080226E-1,-5.067466E-1,-5.187168E-1,-2.2431652E-1,2.8088043E0,-4.6163774E-1,-1.0955756E1,-3.4922493E0,4.374895E-1,5.521893E-1,-7.55529E-1,-1.78298E-1,-1.4061035E0,1.8148558E0,-1.78298E-1,-5.187168E-1,5.9068866E-2,1.15433E-1,1.5247054E0,-1.4783593E0,-5.607845E-1,-9.64739E-2,-1.78298E-1,-1.78298E-1,4.374895E-1,-2.4108267E-1,-6.505309E-1,-6.463436E0,-1.1242053E1,-9.906002E0,-1.15000986E-1,-5.516119E0,5.7918483E-1,7.0245636E-1,5.106216E-1,1.143954E0,-1.7029099E-1,-2.1889353E-2,1.3975334E-1,-1.1560655E-2,9.341375E-2,-2.8420592E-2,1.5946786E-1,9.729045E-2,1.4458863E-1,5.849082E-2,-5.4324653E-2,4.344222E-2,1.591324E-2,-4.2755716E-2,3.0268813E-2,-8.058323E-3,-3.7983976E-2,1.8330162E-2,-6.27683E-2,-1.5884217E-2,2.3996802E-2,-2.9910404E-2,1.0042866E-1,3.40596E-2,-1.0145159E-1,-3.8539696E-2,2.4605192E-2,-9.7819224E-2,-1.8719023E-1,1.5920488E-2,1.8433101E-2,-1.0802434E-1,1.563454E-1,6.242348E-2,3.0316063E-3,1.0168519E-1,-7.373174E-2,-1.2256796E-2,-1.5489866E-3,-9.405168E-2,-1.02133594E-1,-1.7467206E-2,-1.5646043E-1,-1.2738176E-1],"split_indices":[2,16,16,5,6,7,2,11,5,2,13,2,13,15,0,0,16,16,7,6,0,2,2,11,0,3,16,6,15,23,2,2,16,16,5,16,11,0,0,5,9,2,2,16,16,23,0,16,10,6,6,0,6,0,2,2,16,0,0,0,0,0,0,0,0,0,0,0,0,0,0,0,0,0,0,0,0,0,0,0,0,0,0,0,0,0,0,0,0,0,0,0,0,0,0,0,0,0,0,0,0],"split_type":[0,0,0,0,0,0,0,0,0,0,0,0,0,0,0,0,0,0,0,0,0,0,0,0,0,0,0,0,0,0,0,0,0,0,0,0,0,0,0,0,0,0,0,0,0,0,0,0,0,0,0,0,0,0,0,0,0,0,0,0,0,0,0,0,0,0,0,0,0,0,0,0,0,0,0,0,0,0,0,0,0,0,0,0,0,0,0,0,0,0,0,0,0,0,0,0,0,0,0,0,0],"sum_hessian":[1.1871E4,6.189E3,5.682E3,5.305E3,8.84E2,4.282E3,1.4E3,4.77E2,4.828E3,2E1,8.64E2,6.26E2,3.656E3,4.1E1,1.359E3,2E1,4.57E2,1.96E2,4.632E3,1.9E1,1E0,4.49E2,4.15E2,6.18E2,8E0,1.591E3,2.065E3,2.2E1,1.9E1,8.09E2,5.5E2,2.97E2,1.6E2,1.8E1,1.78E2,4.87E2,4.145E3,4E0,1.5E1,8.7E1,3.62E2,1.9E2,2.25E2,1.79E2,4.39E2,1.568E3,2.3E1,7.97E2,1.268E3,5E0,1.7E1,7E0,1.2E1,1.08E2,7.01E2,3.66E2,1.84E2,2.1E1,2.76E2,4.1E1,1.19E2,1.3E1,5E0,1.3E2,4.8E1,2.42E2,2.45E2,2.4E2,3.905E3,1.5E1,7.2E1,1.5E1,3.47E2,1.44E2,4.6E1,2.03E2,2.2E1,8.9E1,9E1,1.96E2,2.43E2,2.6E2,1.308E3,3.68E2,4.29E2,2.1E1,1.247E3,2E0,3E0,3E0,1.4E1,8E0,4E0,3.7E1,7.1E1,2.3E1,6.78E2,3.4E2,2.6E1,1.21E2,6.3E1],"tree_param":{"num_deleted":"0","num_feature":"38","num_nodes":"101","size_leaf_vector":"1"}},{"base_weights":[-3.1107867E-3,7.00313E-1,-5.9524935E-1,8.76066E-1,-3.9266247E-1,-2.5753593E-1,-1.6786247E0,-2.9674882E-1,1.0047516E0,1.882217E0,-4.4768983E-1,8.645801E-1,-4.4546923E-1,-6.855096E-1,-1.8092163E0,-6.4327973E-1,3.410717E-1,4.8042E-1,1.2422951E0,1.9712003E0,9.237505E-3,7.9131377E-1,-4.7980857E-1,-1.5913752E-1,1.2276968E0,3.871167E-1,-6.086044E-1,-1.4468707E0,-2.212789E-1,-1.5644057E0,-2.1651306E0,1.4323883E0,-8.8690233E-1,1.244966E-1,-3.0457997E-1,1.2742429E0,-4.8041844E-1,1.7116712E0,8.7869424E-1,3.9013997E-2,2.077971E0,5.374796E-2,2.669314E-1,1.4475268E-1,-5.4210407E-1,-6.397741E-2,-1.7955689E-1,1.9174201E0,6.518501E-1,7.979933E-1,-3.5170266E-1,-2.2243207E0,-2.2077765E-1,-2.2887494E-1,-2.1496851E0,1.0360804E0,-4.0955275E-1,-1.6878684E0,-2.806142E-1,-1.8541031E0,-2.7737281E0,4.273643E-2,1.0150438E-1,-1.7209686E-1,-3.3436593E-2,-2.8062878E-2,1.3773368E-1,4.2563155E-2,7.602911E-2,-3.552537E-2,3.4920346E-2,5.3024676E-2,1.3364913E-1,1.705638E-1,4.0579047E-2,1.2417771E-1,6.298271E-2,-2.0882273E-2,2.8236566E-2,-2.189661E-3,1.7951988E-2,-3.1393316E-2,-3.0351332E-3,2.1936487E-2,-2.5944466E-2,9.904694E-2,-1.8486686E-1,3.4500685E-2,-1.5891238E-1,-6.418068E-2,4.4948574E-2,-3.6913145E-2,5.8325203E-3,2.5354072E-2,-1.1579984E-1,-7.803818E-2,1.8718028E-3,1.0196679E-2,-1.8445708E-2,-7.26361E-2,-1.3744678E-1,2.3667514E-2,7.346501E-2,-1.7291148E-1,-1.3912918E-2,-1.6253273E-1,-8.130306E-2,-2.72686E-3,-2.4649842E-2,-1.2065833E-1,-7.326348E-2,-1.458913E-1,-1.13900185E-1],"categories":[],"categories_nodes":[],"categories_segments":[],"categories_sizes":[],"default_left":[0,0,0,0,0,0,0,0,0,0,0,0,0,0,1,0,0,0,0,0,0,0,0,0,0,1,0,0,0,1,0,0,0,0,0,0,0,0,0,0,0,0,0,0,1,0,0,0,0,0,0,0,0,0,0,0,0,0,0,0,0,0,0,0,0,0,0,0,0,0,0,0,0,0,0,0,0,0,0,0,0,0,0,0,0,0,0,0,0,0,0,0,0,0,0,0,0,0,0,0,0,0,0,0,0,0,0,0,0,0,0,0,0],"id":13,"left_children":[1,3,5,7,9,11,13,15,17,19,21,23,25,27,29,31,33,35,37,39,-1,41,43,45,47,49,51,53,55,57,59,61,63,-1,65,67,69,71,73,-1,75,-1,77,79,81,83,-1,85,87,89,91,93,95,97,99,101,103,105,107,109,111,-1,-1,-1,-1,-1,-1,-1,-1,-1,-1,-1,-1,-1,-1,-1,-1,-1,-1,-1,-1,-1,-1,-1,-1,-1,-1,-1,-1,-1,-1,-1,-1,-1,-1,-1,-1,-1,-1,-1,-1,-1,-1,-1,-1,-1,-1,-1,-1,-1,-1,-1,-1],"loss_changes":[4.9558066E3,1.0449502E3,2.3630903E3,7.073779E2,9.5228836E1,1.0391946E3,1.9783789E2,1.02774796E2,5.2526025E2,2.35466E0,2.970877E1,2.630077E2,5.73413E2,6.330034E1,1.1476318E2,1.5347998E2,2.282945E2,1.0058976E3,4.942793E2,5.402374E-1,0E0,2.539093E0,2.8052841E1,6.0515892E1,2.0607544E2,2.1034665E2,2.210844E3,5.771768E1,2.7174578E1,1.2743628E2,9.8967285E1,9.313362E0,1.4820526E2,0E0,1.0127179E2,7.393555E1,1.624233E2,7.902876E2,2.7581238E2,0E0,1.8500137E0,0E0,1.8667927E0,2.6823182E0,2.6962967E1,4.184877E1,0E0,9.1848145E1,4.3997665E1,9.469162E1,4.4985695E1,1.7220044E2,9.851282E2,1.6510985E0,1.3965744E1,2.961296E0,3.8664856E1,6.580542E1,3.4301805E0,7.624341E1,6.496826E0,0E0,0E0,0E0,0E0,0E0,0E0,0E0,0E0,0E0,0E0,0E0,0E0,0E0,0E0,0E0,0E0,0E0,0E0,0E0,0E0,0E0,0E0,0E0,0E0,0E0,0E0,0E0,0E0,0E0,0E0,0E0,0E0,0E0,0E0,0E0,0E0,0E0,0E0,0E0,0E0,0E0,0E0,0E0,0E0,0E0,0E0,0E0,0E0,0E0,0E0,0E0,0E0],"parents":[2147483647,0,0,1,1,2,2,3,3,4,4,5,5,6,6,7,7,8,8,9,9,10,10,11,11,12,12,13,13,14,14,15,15,16,16,17,17,18,18,19,19,21,21,22,22,23,23,24,24,25,25,26,26,27,27,28,28,29,29,30,30,31,31,32,32,34,34,35,35,36,36,37,37,38,38,40,40,42,42,43,43,44,44,45,45,47,47,48,48,49,49,50,50,51,51,52,52,53,53,54,54,55,55,56,56,57,57,58,58,59,59,60,60],"right_children":[2,4,6,8,10,12,14,16,18,20,22,24,26,28,30,32,34,36,38,40,-1,42,44,46,48,50,52,54,56,58,60,62,64,-1,66,68,70,72,74,-1,76,-1,78,80,82,84,-1,86,88,90,92,94,96,98,100,102,104,106,108,110,112,-1,-1,-1,-1,-1,-1,-1,-1,-1,-1,-1,-1,-1,-1,-1,-1,-1,-1,-1,-1,-1,-1,-1,-1,-1,-1,-1,-1,-1,-1,-1,-1,-1,-1,-1,-1,-1,-1,-1,-1,-1,-1,-1,-1,-1,-1,-1,-1,-1,-1,-1,-1],"split_conditions":[-1.6152728E-1,1.0495075E0,7.6616776E-1,1.6905056E0,-2.3668554E0,3.2848006E-1,1.3297953E-1,-2.7274457E-1,-4.6163774E-1,-3.9991775E-1,-7.96681E-1,3.2932417E0,-7.449775E-1,-9.64739E-2,5.7918483E-1,-1.8783364E0,-1.78298E-1,-7.449775E-1,-1.78298E-1,-1.0383163E1,9.237505E-3,-8.3700156E-1,1.4054383E0,7.046754E-1,-1.78298E-1,7.5774133E-1,-5.5608433E-1,-1.3637884E-1,-7.591211E0,2.2287772E0,5.521893E-1,2.3975328E-1,-7.55529E-1,1.244966E-1,6.7172116E-1,-5.607845E-1,-5.5608433E-1,-2.7274457E-1,1.8148558E0,3.9013997E-2,-7.520196E0,5.374796E-2,7.046754E-1,1.2529682E0,1.4856312E-1,-1.78298E-1,-1.7955689E-1,2.9778695E0,2.9778695E0,2.8557131E0,2.2124012E0,-2.4832742E0,-5.187168E-1,1.8933427E0,-1.17673405E-1,1.4549321E1,-1.0955756E1,-8.198464E0,-2.4832742E0,3.067323E-1,1.7196168E0,4.273643E-2,1.0150438E-1,-1.7209686E-1,-3.3436593E-2,-2.8062878E-2,1.3773368E-1,4.2563155E-2,7.602911E-2,-3.552537E-2,3.4920346E-2,5.3024676E-2,1.3364913E-1,1.705638E-1,4.0579047E-2,1.2417771E-1,6.298271E-2,-2.0882273E-2,2.8236566E-2,-2.189661E-3,1.7951988E-2,-3.1393316E-2,-3.0351332E-3,2.1936487E-2,-2.5944466E-2,9.904694E-2,-1.8486686E-1,3.4500685E-2,-1.5891238E-1,-6.418068E-2,4.4948574E-2,-3.6913145E-2,5.8325203E-3,2.5354072E-2,-1.1579984E-1,-7.803818E-2,1.8718028E-3,1.0196679E-2,-1.8445708E-2,-7.26361E-2,-1.3744678E-1,2.3667514E-2,7.346501E-2,-1.7291148E-1,-1.3912918E-2,-1.6253273E-1,-8.130306E-2,-2.72686E-3,-2.4649842E-2,-1.2065833E-1,-7.326348E-2,-1.458913E-1,-1.13900185E-1],"split_indices":[2,16,16,5,6,7,2,16,16,2,2,5,16,2,0,16,16,16,16,6,0,2,4,0,16,2,16,2,15,4,2,5,2,0,16,2,16,16,5,0,6,0,0,4,5,16,0,2,2,5,2,10,11,4,2,14,6,15,10,2,2,0,0,0,0,0,0,0,0,0,0,0,0,0,0,0,0,0,0,0,0,0,0,0,0,0,0,0,0,0,0,0,0,0,0,0,0,0,0,0,0,0,0,0,0,0,0,0,0,0,0,0,0],"split_type":[0,0,0,0,0,0,0,0,0,0,0,0,0,0,0,0,0,0,0,0,0,0,0,0,0,0,0,0,0,0,0,0,0,0,0,0,0,0,0,0,0,0,0,0,0,0,0,0,0,0,0,0,0,0,0,0,0,0,0,0,0,0,0,0,0,0,0,0,0,0,0,0,0,0,0,0,0,0,0,0,0,0,0,0,0,0,0,0,0,0,0,0,0,0,0,0,0,0,0,0,0,0,0,0,0,0,0,0,0,0,0,0,0],"sum_hessian":[1.1896E4,5.437E3,6.459E3,4.684E3,7.53E2,4.925E3,1.534E3,4.63E2,4.221E3,1.7E1,7.36E2,7.06E2,4.219E3,1.79E2,1.355E3,3E2,1.63E2,1.317E3,2.904E3,1.6E1,1E0,1.8E1,7.18E2,1.85E2,5.21E2,6.91E2,3.528E3,6.7E1,1.12E2,8.06E2,5.49E2,3.1E1,2.69E2,3.7E1,1.26E2,7.21E2,5.96E2,1.266E3,1.638E3,2E0,1.4E1,1.1E1,7E0,6.5E1,6.53E2,1.81E2,4E0,2.36E2,2.85E2,4.44E2,2.47E2,6.82E2,2.846E3,2.5E1,4.2E1,1.4E1,9.8E1,7.35E2,7.1E1,3.66E2,1.83E2,1.7E1,1.4E1,2E1,2.49E2,1.17E2,9E0,2.67E2,4.54E2,4.99E2,9.7E1,7.56E2,5.1E2,4.1E1,1.597E3,8E0,6E0,2E0,5E0,3.5E1,3E1,5.54E2,9.9E1,8.6E1,9.5E1,2.34E2,2E0,2.83E2,2E0,2E1,4.24E2,1.35E2,1.12E2,2.2E1,6.6E2,4.59E2,2.387E3,6E0,1.9E1,2.1E1,2.1E1,7E0,7E0,3E0,9.5E1,2.6E1,7.09E2,3.5E1,3.6E1,1.48E2,2.18E2,1.38E2,4.5E1],"tree_param":{"num_deleted":"0","num_feature":"38","num_nodes":"113","size_leaf_vector":"1"}},{"base_weights":[4.9270634E-3,3.9413098E-1,-1.0175977E0,6.8189746E-1,-9.3787506E-2,-1.394236E-1,-1.1533678E0,1.8508033E0,5.797073E-1,-3.2260534E-1,1.0781506E0,-2.0613137E-1,-7.470801E-2,7.8851515E-1,-1.2306482E0,2.9703581E0,1.5932957E0,1.9136306E0,5.1988274E-1,-3.63181E0,-2.4767596E-1,1.4538229E0,2.1370305E-1,1.2810973E0,-1.644673E-1,6.346997E-1,6.534162E-2,1.1763798E0,-1.2760961E0,1.6463318E-1,1.31591E-1,1.3536078E0,1.8520341E0,2.2811532E0,1.4240952E0,-4.5239964E0,5.335862E-1,-1.4406738E-1,-1.9455022E-1,1.4171466E0,-3.5408568E-1,8.845462E-2,1.4093031E0,1.1026824E0,-3.658784E-1,7.3309354E-2,-1.4971459E-1,-2.1478453E0,-1.14220455E-1,6.552515E-2,2.9724194E-2,-1.3480864E-1,1.3077544E0,-1.6354425E-1,-1.3669423E0,7.966618E-2,5.0134595E-2,1.3638863E-1,8.088795E-2,1.6173269E-1,1.0825328E-1,5.3747218E-2,7.675101E-2,1.3386783E-1,-3.0383646E-1,1.4148186E-2,3.9052334E-2,-1.2055369E-1,9.6511655E-2,-3.9611235E-2,-4.3330262E-3,5.9796937E-2,7.390543E-2,7.9587795E-2,2.7324269E-2,-9.716397E-3,-4.134345E-2,-2.5739346E-2,2.3637557E-2,-6.1832458E-2,-1.9308767E-1,-8.673405E-3,6.119139E-2,-2.3632026E-3,8.031751E-2,-8.4743E-5,-2.0542057E-1,-8.934179E-2,-5.8561344E-2],"categories":[],"categories_nodes":[],"categories_segments":[],"categories_sizes":[],"default_left":[0,0,0,0,0,0,0,0,0,0,0,0,0,0,0,0,0,0,0,0,0,0,0,0,0,0,0,0,0,0,0,0,0,0,0,0,0,0,0,0,0,0,0,0,0,0,0,0,0,0,0,0,0,0,0,0,0,0,0,0,0,0,0,0,0,0,0,0,0,0,0,0,0,0,0,0,0,0,0,0,0,0,0,0,0,0,0,0,0],"id":14,"left_children":[1,3,5,7,9,11,13,15,17,19,21,-1,23,25,27,29,31,33,35,37,39,41,43,45,47,49,-1,51,53,-1,-1,55,57,59,61,63,65,-1,-1,67,69,-1,71,73,75,-1,77,79,81,-1,-1,-1,83,85,87,-1,-1,-1,-1,-1,-1,-1,-1,-1,-1,-1,-1,-1,-1,-1,-1,-1,-1,-1,-1,-1,-1,-1,-1,-1,-1,-1,-1,-1,-1,-1,-1,-1,-1],"loss_changes":[4.7203325E3,1.2062968E3,3.8972046E2,6.4443823E2,8.5524304E2,1.128554E2,4.259673E2,1.2038672E2,3.9569812E2,6.6064874E2,1.6888342E2,0E0,5.2905125E1,7.8606033E0,2.994917E2,6.335449E-2,1.950885E1,3.5073425E1,3.313506E2,2.6507568E-1,4.6287192E2,2.6018066E0,8.2325966E1,7.369877E0,4.031568E1,1.5582352E0,0E0,2.9472427E1,2.7004053E2,0E0,0E0,1.421698E1,3.0054626E1,6.279541E0,1.990509E0,1.6163263E2,2.9418384E2,0E0,0E0,3.130347E2,2.8746506E2,0E0,2.974121E0,1.6267471E1,7.5103836E0,0E0,1.1523461E0,1.0841427E1,3.1764225E1,0E0,0E0,0E0,2.030606E1,1.2960333E2,2.0105518E2,0E0,0E0,0E0,0E0,0E0,0E0,0E0,0E0,0E0,0E0,0E0,0E0,0E0,0E0,0E0,0E0,0E0,0E0,0E0,0E0,0E0,0E0,0E0,0E0,0E0,0E0,0E0,0E0,0E0,0E0,0E0,0E0,0E0,0E0],"parents":[2147483647,0,0,1,1,2,2,3,3,4,4,5,5,6,6,7,7,8,8,9,9,10,10,12,12,13,13,14,14,15,15,16,16,17,17,18,18,19,19,20,20,21,21,22,22,23,23,24,24,25,25,27,27,28,28,31,31,32,32,33,33,34,34,35,35,36,36,39,39,40,40,42,42,43,43,44,44,46,46,47,47,48,48,52,52,53,53,54,54],"right_children":[2,4,6,8,10,12,14,16,18,20,22,-1,24,26,28,30,32,34,36,38,40,42,44,46,48,50,-1,52,54,-1,-1,56,58,60,62,64,66,-1,-1,68,70,-1,72,74,76,-1,78,80,82,-1,-1,-1,84,86,88,-1,-1,-1,-1,-1,-1,-1,-1,-1,-1,-1,-1,-1,-1,-1,-1,-1,-1,-1,-1,-1,-1,-1,-1,-1,-1,-1,-1,-1,-1,-1,-1,-1,-1],"split_conditions":[7.5774133E-1,-1.627743E-1,5.1643956E-1,3.2848006E-1,7.046754E-1,5.4226846E-1,-2.4832742E0,-5.404164E-1,-7.7444226E-1,-1.1565535E0,3.2848006E-1,-2.0613137E-1,-2.7965448E0,2.8081636E0,-2.9848568E0,-7.174946E-1,7.046754E-1,-8.3700156E-1,-3.3771071E0,-1.3637884E-1,-1.607571E-1,-5.864734E-2,-2.6082325E0,2.9726734E0,-3.3910403E0,-2.6082325E0,6.534162E-2,-6.155142E-1,3.2848006E-1,1.6463318E-1,1.31591E-1,-5.273226E-1,-4.6310058E-1,-2.7965448E0,7.046754E-1,-5.404164E-1,-5.273226E-1,-1.4406738E-1,-1.9455022E-1,5.420883E-2,2.0211193E-1,8.845462E-2,1.9824074E-1,-2.7965448E0,4.7944587E-1,7.3309354E-2,2.9778695E0,-5.76945E0,1.3463237E0,6.552515E-2,2.9724194E-2,-1.3480864E-1,7.046754E-1,2.9383802E0,5.753928E-1,7.966618E-2,5.0134595E-2,1.3638863E-1,8.088795E-2,1.6173269E-1,1.0825328E-1,5.3747218E-2,7.675101E-2,1.3386783E-1,-3.0383646E-1,1.4148186E-2,3.9052334E-2,-1.2055369E-1,9.6511655E-2,-3.9611235E-2,-4.3330262E-3,5.9796937E-2,7.390543E-2,7.9587795E-2,2.7324269E-2,-9.716397E-3,-4.134345E-2,-2.5739346E-2,2.3637557E-2,-6.1832458E-2,-1.9308767E-1,-8.673405E-3,6.119139E-2,-2.3632026E-3,8.031751E-2,-8.4743E-5,-2.0542057E-1,-8.934179E-2,-5.8561344E-2],"split_indices":[2,2,0,7,0,1,10,2,2,10,7,0,9,4,9,2,0,2,12,2,12,2,9,2,15,9,0,13,7,0,0,2,2,9,0,2,2,0,0,2,13,0,2,9,2,0,2,15,9,0,0,0,0,2,1,0,0,0,0,0,0,0,0,0,0,0,0,0,0,0,0,0,0,0,0,0,0,0,0,0,0,0,0,0,0,0,0,0,0],"split_type":[0,0,0,0,0,0,0,0,0,0,0,0,0,0,0,0,0,0,0,0,0,0,0,0,0,0,0,0,0,0,0,0,0,0,0,0,0,0,0,0,0,0,0,0,0,0,0,0,0,0,0,0,0,0,0,0,0,0,0,0,0,0,0,0,0,0,0,0,0,0,0,0,0,0,0,0,0,0,0,0,0,0,0,0,0,0,0,0,0],"sum_hessian":[1.1859E4,8.59E3,3.269E3,5.403E3,3.187E3,4.38E2,2.831E3,4.33E2,4.97E3,2.667E3,5.2E2,6E0,4.32E2,1.08E2,2.723E3,7.9E1,3.54E2,2.12E2,4.758E3,5.8E1,2.609E3,3.62E2,1.58E2,2.6E1,4.06E2,8.5E1,2.3E1,5E1,2.673E3,3.6E1,4.3E1,1.87E2,1.67E2,1.19E2,9.3E1,1.2E1,4.746E3,1.8E1,4E1,1.56E2,2.453E3,4E1,3.22E2,6.2E1,9.6E1,2.3E1,3E0,9E0,3.97E2,3E0,8.2E1,1E0,4.9E1,2.02E2,2.471E3,1.09E2,7.8E1,3.3E1,1.34E2,1E1,1.09E2,2.5E1,6.8E1,2E0,1E1,2.359E3,2.387E3,1.8E1,1.38E2,9.29E2,1.524E3,8.3E1,2.39E2,3.2E1,3E1,7.1E1,2.5E1,2E0,1E0,7E0,2E0,3.81E2,1.6E1,9E0,4E1,1.95E2,7E0,7.83E2,1.688E3],"tree_param":{"num_deleted":"0","num_feature":"38","num_nodes":"89","size_leaf_vector":"1"}},{"base_weights":[1.217841E-2,2.793468E-1,-1.1570374E0,-1.0144724E0,4.1545942E-1,-2.2326503E0,-1.0401878E0,9.881919E-2,-1.4289843E0,-6.3128364E-1,5.239874E-1,-1.3687117E0,-2.5582478E0,-1.3702109E0,-8.5430026E-1,-5.033747E-1,6.409575E-1,-1.8899618E0,-1.0902609E0,-1.5110106E0,-2.2929583E-1,6.9788513E-3,7.415126E-1,-7.672879E-2,-5.4320544E-2,-8.0771536E-2,-2.605302E0,-1.483451E0,-2.3420666E-1,6.180489E-1,-9.2244595E-1,-2.0659451E0,-3.5674673E-1,-1.3240908E0,9.234132E-1,-8.429826E-1,-2.478567E0,5.7656986E-1,-1.4337E0,-1.5293698E-1,-1.2200925E0,2.2259512E0,-3.236541E-1,1.0119727E0,-1.0517498E0,1.1815464E0,3.5595497E-1,-1.3805643E-1,-1.139887E-1,-1.5240173E-1,-1.4211967E0,-9.980874E-2,-4.022382E-1,-5.6681916E-2,1.7774296E0,1.5902424E-1,-9.7856957E-1,-5.912729E-2,-1.8665141E-1,9.283471E-3,-5.438828E-2,-1.6842926E-1,-3.226858E-2,3.7529577E-2,7.463866E-2,1.9553572E-2,-4.8994083E-2,-6.4449804E-3,-1.3303517E-1,-1.8833773E-1,4.1950937E-2,-1.6565391E-1,-6.590426E-2,-3.9602816E-2,-9.533765E-2,1.2898614E-1,7.3381014E-2,-2.5050474E-2,3.1334598E-2,2.1452305E-3,5.309785E-2,-6.1506975E-2,1.665055E-2,2.2643818E-2,1.06314555E-1,-3.7958115E-2,2.4014022E-2,-6.326107E-2,-1.00388505E-1,-1.2152256E-2,1.6277883E-2,-3.0558823E-2,-1.7731158E-2,5.440287E-2,-4.0039327E-2,6.488847E-2,1.1973281E-1,2.253865E-2,-7.873762E-3,-8.762213E-3,-5.3047597E-2],"categories":[],"categories_nodes":[],"categories_segments":[],"categories_sizes":[],"default_left":[0,0,0,0,0,0,1,0,0,0,0,0,0,1,0,0,0,0,0,0,0,0,0,0,0,0,1,0,0,0,0,0,0,0,0,0,0,0,0,0,0,0,1,0,0,0,0,0,0,0,1,0,0,0,0,0,0,0,0,0,0,0,0,0,0,0,0,0,0,0,0,0,0,0,0,0,0,0,0,0,0,0,0,0,0,0,0,0,0,0,0,0,0,0,0,0,0,0,0,0,0],"id":15,"left_children":[1,3,5,7,9,11,13,15,17,19,21,23,25,27,29,31,33,35,37,39,41,43,45,-1,-1,-1,47,49,51,53,55,57,59,61,63,65,67,69,71,-1,73,75,77,79,81,83,85,-1,-1,-1,87,89,91,93,95,97,99,-1,-1,-1,-1,-1,-1,-1,-1,-1,-1,-1,-1,-1,-1,-1,-1,-1,-1,-1,-1,-1,-1,-1,-1,-1,-1,-1,-1,-1,-1,-1,-1,-1,-1,-1,-1,-1,-1,-1,-1,-1,-1,-1,-1],"loss_changes":[3.6998096E3,1.6982512E3,2.7456152E2,4.23773E2,9.913855E2,5.6977173E1,1.2084912E2,8.1940735E1,1.0239978E2,2.89638E2,8.8900977E2,1.1890488E0,2.6677246E0,9.163098E1,1.2849634E2,2.6527847E1,7.4487854E1,1.7169513E2,2.2293915E2,1.1198547E2,1.3138394E2,2.4929895E3,9.435591E2,0E0,0E0,0E0,1.111206E0,5.8979492E1,1.4503374E0,4.4690132E1,7.414392E1,1.0312523E1,4.381877E1,2.141585E1,1.0293678E1,1.7784103E1,7.668994E1,7.9533714E1,6.559851E1,0E0,6.2563385E1,1.8477325E0,9.200461E1,5.8177246E1,2.8226733E2,1.787519E3,4.1170197E2,0E0,0E0,0E0,5.4824707E1,2.3943872E0,7.17721E-2,3.238812E1,3.10952E0,5.7036242E0,7.651648E1,0E0,0E0,0E0,0E0,0E0,0E0,0E0,0E0,0E0,0E0,0E0,0E0,0E0,0E0,0E0,0E0,0E0,0E0,0E0,0E0,0E0,0E0,0E0,0E0,0E0,0E0,0E0,0E0,0E0,0E0,0E0,0E0,0E0,0E0,0E0,0E0,0E0,0E0,0E0,0E0,0E0,0E0,0E0,0E0],"parents":[2147483647,0,0,1,1,2,2,3,3,4,4,5,5,6,6,7,7,8,8,9,9,10,10,11,11,12,12,13,13,14,14,15,15,16,16,17,17,18,18,19,19,20,20,21,21,22,22,26,26,27,27,28,28,29,29,30,30,31,31,32,32,33,33,34,34,35,35,36,36,37,37,38,38,40,40,41,41,42,42,43,43,44,44,45,45,46,46,50,50,51,51,52,52,53,53,54,54,55,55,56,56],"right_children":[2,4,6,8,10,12,14,16,18,20,22,24,26,28,30,32,34,36,38,40,42,44,46,-1,-1,-1,48,50,52,54,56,58,60,62,64,66,68,70,72,-1,74,76,78,80,82,84,86,-1,-1,-1,88,90,92,94,96,98,100,-1,-1,-1,-1,-1,-1,-1,-1,-1,-1,-1,-1,-1,-1,-1,-1,-1,-1,-1,-1,-1,-1,-1,-1,-1,-1,-1,-1,-1,-1,-1,-1,-1,-1,-1,-1,-1,-1,-1,-1,-1,-1,-1,-1],"split_conditions":[1.0495075E0,5.753928E-1,5.753928E-1,5.1643956E-1,1.6905056E0,5.7918483E-1,5.7918483E-1,-4.6163774E-1,-2.7274457E-1,-5.187168E-1,-4.6163774E-1,5.9307486E-1,3.2932417E0,2.2287772E0,-1.719141E-1,-3.3910403E0,5.588306E-1,-7.449775E-1,-1.78298E-1,-1.1565535E0,-5.1367154E0,-7.449775E-1,-1.78298E-1,-7.672879E-2,-5.4320544E-2,-8.0771536E-2,2.4117413E0,-8.198464E0,2.9301398E0,-2.834391E0,1.4054383E0,-5.76945E0,-6.505309E-1,5.4226846E-1,4.8282802E-1,2.2287772E0,3.2932417E0,1.7103786E0,1.7103786E0,-1.5293698E-1,8.9291114E-1,-1.78298E-1,1.0400953E0,-3.138018E0,-5.5608433E-1,-2.7274457E-1,-5.187168E-1,-1.3805643E-1,-1.139887E-1,-1.5240173E-1,5.2069265E-1,2.8081636E0,1.4968879E0,-7.591211E0,-5.1343904E0,-6.155142E-1,2.9017687E0,-5.912729E-2,-1.8665141E-1,9.283471E-3,-5.438828E-2,-1.6842926E-1,-3.226858E-2,3.7529577E-2,7.463866E-2,1.9553572E-2,-4.8994083E-2,-6.4449804E-3,-1.3303517E-1,-1.8833773E-1,4.1950937E-2,-1.6565391E-1,-6.590426E-2,-3.9602816E-2,-9.533765E-2,1.2898614E-1,7.3381014E-2,-2.5050474E-2,3.1334598E-2,2.1452305E-3,5.309785E-2,-6.1506975E-2,1.665055E-2,2.2643818E-2,1.06314555E-1,-3.7958115E-2,2.4014022E-2,-6.326107E-2,-1.00388505E-1,-1.2152256E-2,1.6277883E-2,-3.0558823E-2,-1.7731158E-2,5.440287E-2,-4.0039327E-2,6.488847E-2,1.1973281E-1,2.253865E-2,-7.873762E-3,-8.762213E-3,-5.3047597E-2],"split_indices":[16,1,1,0,5,0,0,16,16,11,16,9,5,4,6,15,1,16,16,10,10,16,16,0,0,0,4,15,4,15,4,15,16,1,16,4,5,4,4,0,0,16,18,15,16,16,11,0,0,0,5,4,10,15,6,13,5,0,0,0,0,0,0,0,0,0,0,0,0,0,0,0,0,0,0,0,0,0,0,0,0,0,0,0,0,0,0,0,0,0,0,0,0,0,0,0,0,0,0,0,0],"split_type":[0,0,0,0,0,0,0,0,0,0,0,0,0,0,0,0,0,0,0,0,0,0,0,0,0,0,0,0,0,0,0,0,0,0,0,0,0,0,0,0,0,0,0,0,0,0,0,0,0,0,0,0,0,0,0,0,0,0,0,0,0,0,0,0,0,0,0,0,0,0,0,0,0,0,0,0,0,0,0,0,0,0,0,0,0,0,0,0,0,0,0,0,0,0,0,0,0,0,0,0,0],"sum_hessian":[1.1842E4,9.64E3,2.202E3,9.17E2,8.723E3,2.14E2,1.988E3,2.49E2,6.68E2,8.19E2,7.904E3,6E1,1.54E2,7.14E2,1.274E3,1.18E2,1.31E2,2.81E2,3.87E2,2.56E2,5.63E2,2.341E3,5.563E3,3.5E1,2.5E1,9E0,1.45E2,6.49E2,6.5E1,5.6E1,1.218E3,9E0,1.09E2,1.6E1,1.15E2,1.02E2,1.79E2,6.6E1,3.21E2,3.9E1,2.17E2,2E1,5.43E2,1.201E3,1.14E3,2.597E3,2.966E3,9.3E1,5.2E1,2.3E1,6.26E2,3.7E1,2.8E1,3.6E1,2E1,6E1,1.158E3,7E0,2E0,6.3E1,4.6E1,3E0,1.3E1,9E1,2.5E1,1E1,9.2E1,1.3E1,1.66E2,3E0,6.3E1,1.7E1,3.04E2,1.35E2,8.2E1,1.2E1,8E0,4.58E2,8.5E1,5.9E1,1.142E3,1.01E3,1.3E2,1.467E3,1.13E3,2.97E2,2.669E3,4.97E2,1.29E2,2.8E1,9E0,3E0,2.5E1,1.4E1,2.2E1,1.3E1,7E0,3.1E1,2.9E1,1.08E2,1.05E3],"tree_param":{"num_deleted":"0","num_feature":"38","num_nodes":"101","size_leaf_vector":"1"}},{"base_weights":[-1.6046956E-3,5.4831266E-1,-6.0257304E-1,7.104911E-1,-4.288734E-1,-2.908281E-1,-1.5478075E0,-3.9133346E-1,8.157997E-1,1.6490217E0,-4.765316E-1,6.9454724E-1,-4.6225923E-1,4.0699458E-1,-1.5995094E0,2.099011E0,-4.9074033E-1,2.3713675E0,7.452058E-1,9.4014734E-2,-2.8829035E-1,-2.1439141E-1,-7.5900006E-1,7.6057047E-1,-1.9801177E-1,-8.997148E-1,-1.2140872E-1,-1.984202E0,8.426254E-1,-1.3675921E0,-1.934128E0,1.2969269E0,2.3077414E0,5.844956E-1,-7.1961E-1,9.353206E-1,2.5259795E0,1.7259334E0,6.297578E-1,